{"learner":{"attributes":{"scikit_learn":"{\"use_label_encoder\": true, \"n_estimators\": 100, \"objective\": \"binary:logistic\", \"max_depth\": null, \"learning_rate\": null, \"verbosity\": null, \"booster\": null, \"tree_method\": null, \"gamma\": null, \"min_child_weight\": null, \"max_delta_step\": null, \"subsample\": null, \"colsample_bytree\": null, \"colsample_bylevel\": null, \"colsample_bynode\": null, \"reg_alpha\": null, \"reg_lambda\": null, \"scale_pos_weight\": 21.2, \"base_score\": null, \"missing\": NaN, \"num_parallel_tree\": null, \"kwargs\": {\"clf_n_estimators\": 217, \"clf_max_depth\": 9, \"clf_min_child_weight\": 2, \"clf_subsample\": 0.72, \"clf_learning_rate\": 0.825, \"eval_metric\": \"aucpr\", \"early_stopping_rounds\": 20}, \"random_state\": null, \"n_jobs\": null, \"monotone_constraints\": null, \"interaction_constraints\": null, \"importance_type\": \"gain\", \"gpu_id\": null, \"validate_parameters\": null, \"classes_\": [0, 1], \"n_classes_\": 2, \"_le\": {\"classes_\": [0, 1]}, \"_features_count\": 9, \"n_features_in_\": 9, \"evals_result_\": {\"validation_0\": {\"aucpr\": [0.182001, 0.229783, 0.284506, 0.325823, 0.332431, 0.347619, 0.353771, 0.364224, 0.374899, 0.378624, 0.378092, 0.383515, 0.389664, 0.390415, 0.397152, 0.394985, 0.394214, 0.400695, 0.399652, 0.404972, 0.404399, 0.403524, 0.404735, 0.402546, 0.406181, 0.407809, 0.407008, 0.407481, 0.411206, 0.409811, 0.412067, 0.412707, 0.412689, 0.41272, 0.411969, 0.411886, 0.41201, 0.411478, 0.411213, 0.411162, 0.410994, 0.411705, 0.4106, 0.410087, 0.411055, 0.411662, 0.411839, 0.411087, 0.412122, 0.412076, 0.411676, 0.413574, 0.413672, 0.413214, 0.413072, 0.412919, 0.412737, 0.413007, 0.412831, 0.412357, 0.411576, 0.411709, 0.411445, 0.41074, 0.411394, 0.411627, 0.411493, 0.4117, 0.41101, 0.411211, 0.410778, 0.410566, 0.410792, 0.41067, 0.41071, 0.409427, 0.409255, 0.409571, 0.409557, 0.409878, 0.40982, 0.41167, 0.411024, 0.410932, 0.409557, 0.409852, 0.409746, 0.409303, 0.408831, 0.407956, 0.407676, 0.407147, 0.40704, 0.406566, 0.406578, 0.406046, 0.406151, 0.406126, 0.40619, 0.405224]}}, \"type\": \"XGBClassifier\"}"},"gradient_booster":{"model":{"gbtree_model_param":{"num_trees":"100","size_leaf_vector":"0"},"tree_info":[0,0,0,0,0,0,0,0,0,0,0,0,0,0,0,0,0,0,0,0,0,0,0,0,0,0,0,0,0,0,0,0,0,0,0,0,0,0,0,0,0,0,0,0,0,0,0,0,0,0,0,0,0,0,0,0,0,0,0,0,0,0,0,0,0,0,0,0,0,0,0,0,0,0,0,0,0,0,0,0,0,0,0,0,0,0,0,0,0,0,0,0,0,0,0,0,0,0,0,0],"trees":[{"base_weights":[-1.8593158E-3,-9.194294E-1,5.270698E-1,-1.6196526E0,-5.0516206E-1,-6.3801897E-1,6.972731E-1,-1.7883835E0,-1.0914867E0,-1.1964793E0,-9.848878E-3,7.210496E-2,-8.435131E-1,9.67031E-1,-3.356575E-1,-1.8164078E0,3.6560632E-2,-1.183734E0,1.1894127E0,-7.9666084E-1,-1.4147854E0,2.729714E-1,-1.0048674E0,3.212691E-1,-7.297498E-1,-6.8072283E-1,-1.2244828E0,1.2224525E0,3.6725275E-2,1.0938886E0,-9.1963136E-1,-1.840813E0,-2.1915917E-1,6.5724385E-1,-1.8904109E0,-7.8431624E-1,-1.611694E0,1.4614004E0,-1.6521739E0,1.01742856E-1,-1.1237915E0,-1.5055168E0,-5.7062143E-1,6.3685906E-1,-7.2783154E-1,-2.4651879E-1,-1.4108527E0,-1.8961039E0,3.8840032E-1,-1.0958822E0,9.5890415E-1,-5.510057E-1,-1.3917022E0,-4.1902417E-1,-1.3527234E0,1.3410227E0,4.389867E-2,7.0039004E-1,-3.947206E-1,-1.9742765E0,1.2544023E0,-1.5816699E0,-3.395037E-1,-1.9444659E0,-1.7663003E0,-1.9470198E0,1.6089386E0,-1.7241379E0,9.870904E-1,-5.1986784E-1,-1.4857143E0,-1.0371203E0,-1.8671123E0,-1.5789474E0,1.7112608E0,1.0492218E0,-2.6568863E-1,4.9740937E-1,-1.23785E0,-1.5424094E0,-9.439524E-2,-1.0046463E0,3.6464092E-1,7.0001006E-1,-1.7493247E0,-3.2697138E-1,-1.2476821E0,7.5986475E-1,-8.2471216E-1,-1.5085088E0,8.993289E-1,6.718278E-1,-1.490626E-1,-1.3959638E0,7.737844E-1,-1.6666666E0,1.4285715E0,-6.0291845E-1,9.765828E-1,-1.8515675E0,-9.3844724E-1,1.4629085E-2,-1.9266055E0,-1.9999996E-1,-1.449957E0,1.4988137E0,9.411978E-1,-1.4182305E0,2.0842609E-1,1.210153E0,-6.5966386E-1,-6.86873E-2,-9.9129516E-1,1.44811E0,-1.2014719E0,-1.0498031E0,-1.6850774E0,-4.2481814E-3,-9.5798314E-1],"categories":[],"categories_nodes":[],"categories_segments":[],"categories_sizes":[],"default_left":[true,true,true,true,true,true,true,true,true,true,true,true,true,true,true,true,true,true,true,true,true,true,true,true,true,true,true,true,true,true,true,true,true,true,false,true,true,true,false,true,true,true,true,true,true,true,true,false,true,true,true,true,true,true,true,true,true,true,true,false,true,true,true,false,false,false,false,false,false,false,false,false,false,false,false,false,false,false,false,false,false,false,false,false,false,false,false,false,false,false,false,false,false,false,false,false,false,false,false,false,false,false,false,false,false,false,false,false,false,false,false,false,false,false,false,false,false,false,false],"id":0,"left_children":[1,3,5,7,9,11,13,15,17,19,21,23,25,27,29,31,33,35,37,39,41,43,45,47,49,51,53,55,57,59,61,63,65,67,-1,69,71,73,-1,75,77,79,81,83,85,87,89,-1,91,93,95,97,99,101,103,105,107,109,111,-1,113,115,117,-1,-1,-1,-1,-1,-1,-1,-1,-1,-1,-1,-1,-1,-1,-1,-1,-1,-1,-1,-1,-1,-1,-1,-1,-1,-1,-1,-1,-1,-1,-1,-1,-1,-1,-1,-1,-1,-1,-1,-1,-1,-1,-1,-1,-1,-1,-1,-1,-1,-1,-1,-1,-1,-1,-1,-1],"loss_changes":[2.2709295E4,4.9624014E3,5.886373E3,5.6478906E2,3.6814673E3,5.522311E2,7.216786E3,2.4648047E2,3.2591846E2,3.9057617E2,1.7632185E3,1.7008884E2,1.8117407E2,4.879711E3,4.4788E3,1.8457324E2,8.956993E1,2.5220654E2,4.9134857E1,4.665998E2,2.2137256E2,1.7772606E3,4.2660242E2,9.7387985E1,1.25848816E2,1.8907153E2,9.0056885E1,2.2514805E3,1.2672391E3,7.6882874E2,1.4622583E3,3.2663086E1,2.3229619E2,4.6160652E1,0E0,1.4185522E2,1.0297998E2,4.5015198E1,0E0,1.4809628E2,2.1578821E2,1.3621533E2,1.15324905E2,5.404685E2,2.7078735E2,2.8269507E2,2.0507654E2,0E0,9.6229095E1,9.441127E1,4.739074E1,1.3876733E2,6.432623E1,7.9755135E1,8.448999E1,9.2216797E2,3.548455E2,1.209645E3,5.216186E2,0E0,7.0549854E2,9.6046875E1,4.2116257E2,0E0,0E0,0E0,0E0,0E0,0E0,0E0,0E0,0E0,0E0,0E0,0E0,0E0,0E0,0E0,0E0,0E0,0E0,0E0,0E0,0E0,0E0,0E0,0E0,0E0,0E0,0E0,0E0,0E0,0E0,0E0,0E0,0E0,0E0,0E0,0E0,0E0,0E0,0E0,0E0,0E0,0E0,0E0,0E0,0E0,0E0,0E0,0E0,0E0,0E0,0E0,0E0,0E0,0E0,0E0,0E0],"parents":[2147483647,0,0,1,1,2,2,3,3,4,4,5,5,6,6,7,7,8,8,9,9,10,10,11,11,12,12,13,13,14,14,15,15,16,16,17,17,18,18,19,19,20,20,21,21,22,22,23,23,24,24,25,25,26,26,27,27,28,28,29,29,30,30,31,31,32,32,33,33,35,35,36,36,37,37,39,39,40,40,41,41,42,42,43,43,44,44,45,45,46,46,48,48,49,49,50,50,51,51,52,52,53,53,54,54,55,55,56,56,57,57,58,58,60,60,61,61,62,62],"right_children":[2,4,6,8,10,12,14,16,18,20,22,24,26,28,30,32,34,36,38,40,42,44,46,48,50,52,54,56,58,60,62,64,66,68,-1,70,72,74,-1,76,78,80,82,84,86,88,90,-1,92,94,96,98,100,102,104,106,108,110,112,-1,114,116,118,-1,-1,-1,-1,-1,-1,-1,-1,-1,-1,-1,-1,-1,-1,-1,-1,-1,-1,-1,-1,-1,-1,-1,-1,-1,-1,-1,-1,-1,-1,-1,-1,-1,-1,-1,-1,-1,-1,-1,-1,-1,-1,-1,-1,-1,-1,-1,-1,-1,-1,-1,-1,-1,-1,-1,-1],"split_conditions":[1.0393262E-3,-7.2312045E-1,-1.0302818E0,7.8167796E-1,-1.689643E-1,-1.0382566E0,1.0958252E0,1.1452656E0,2.9473388E-1,1.0668726E0,1.4471321E0,-4.2937627E-1,-3.12698E-2,7.356024E-1,-2.6450843E-1,8.7838066E-1,-7.03109E-1,-7.398143E-1,1.2532289E0,-7.209053E-1,4.751209E-1,9.3107307E-1,-1.1570599E0,-1.3679779E0,2.2035831E-1,1.6612916E0,-8.995017E-1,1.4041178E0,4.8989344E-1,-6.6593236E-1,-2.4327469E-1,-1.0801253E0,1.2930839E0,-1.1557428E0,-5.671233E-1,-1.6023127E0,-1.1176677E0,-1.0149524E0,-4.9565217E-1,-1.5686E-1,-5.2906704E-1,1.6615746E0,-8.107146E-1,1.5688512E0,7.985734E-1,1.5971689E0,2.5485614E-1,-5.688312E-1,-1.2020603E0,2.7595177E0,-2.7720872E-1,1.6476138E0,1.8043272E0,-6.551935E-1,-4.6618384E-1,7.9237676E-1,3.9909327E-1,1.5002321E0,1.1088325E0,-5.92283E-1,1.6545775E0,-1.8572025E-2,2.4200064E-1,-5.833398E-1,-5.298901E-1,-5.8410597E-1,4.826816E-1,-5.172414E-1,2.9612714E-1,-1.5596035E-1,-4.4571432E-1,-3.1113613E-1,-5.601337E-1,-4.7368425E-1,5.1337826E-1,3.1476653E-1,-7.9706594E-2,1.4922282E-1,-3.71355E-1,-4.6272284E-1,-2.8318575E-2,-3.013939E-1,1.0939228E-1,2.1000303E-1,-5.2479744E-1,-9.8091416E-2,-3.7430465E-1,2.2795944E-1,-2.4741365E-1,-4.5255265E-1,2.6979867E-1,2.0154835E-1,-4.4718783E-2,-4.1878915E-1,2.3213533E-1,-5E-1,4.2857146E-1,-1.8087554E-1,2.9297486E-1,-5.554703E-1,-2.815342E-1,4.3887254E-3,-5.7798165E-1,-5.999999E-2,-4.3498713E-1,4.4964415E-1,2.8235936E-1,-4.254692E-1,6.252783E-2,3.630459E-1,-1.9789916E-1,-2.060619E-2,-2.9738855E-1,4.34433E-1,-3.604416E-1,-3.1494096E-1,-5.0552326E-1,-1.2744544E-3,-2.8739494E-1],"split_indices":[2,5,5,8,8,3,5,1,1,4,8,4,3,4,4,7,7,3,8,2,1,4,4,6,8,2,0,8,5,8,8,5,6,7,0,2,0,5,0,7,4,3,8,5,5,8,5,0,3,1,4,2,2,7,8,5,2,4,4,0,5,4,4,0,0,0,0,0,0,0,0,0,0,0,0,0,0,0,0,0,0,0,0,0,0,0,0,0,0,0,0,0,0,0,0,0,0,0,0,0,0,0,0,0,0,0,0,0,0,0,0,0,0,0,0,0,0,0,0],"split_type":[0,0,0,0,0,0,0,0,0,0,0,0,0,0,0,0,0,0,0,0,0,0,0,0,0,0,0,0,0,0,0,0,0,0,0,0,0,0,0,0,0,0,0,0,0,0,0,0,0,0,0,0,0,0,0,0,0,0,0,0,0,0,0,0,0,0,0,0,0,0,0,0,0,0,0,0,0,0,0,0,0,0,0,0,0,0,0,0,0,0,0,0,0,0,0,0,0,0,0,0,0,0,0,0,0,0,0,0,0,0,0,0,0,0,0,0,0,0,0],"sum_hessian":[4.67895E4,1.710885E4,2.968065E4,6.35845E3,1.07504E4,3.7829001E3,2.589775E4,4.81715E3,1.5413E3,4.48675E3,6.26365E3,8.4915E2,2.93375E3,2.0534951E4,5.3628003E3,4.7443E3,7.285E1,1.48185E3,5.945E1,1.58625E3,2.9005E3,4.8779E3,1.38575E3,6.483E2,2.0085E2,2.0574E3,8.7635E2,1.61112E4,4.42375E3,1.5551001E3,3.8077E3,4.67275E3,7.155E1,5.5600002E1,1.725E1,7.6795E2,7.139E2,5.47E1,4.75E0,4.236E2,1.16265E3,2.6183E3,2.822E2,3.5775E3,1.3004E3,4.8375E2,9.02E2,1.825E1,6.3005E2,1.6535E2,3.55E1,1.7414501E3,3.1595E2,1.20950005E2,7.554E2,1.4638351E4,1.47285E3,1.7426001E3,2.6811501E3,7.675E1,1.4783501E3,1.7775E3,2.0302001E3,1.94375E3,2.729E3,3.675E1,3.4800003E1,6.25E0,4.9350002E1,5.5895E2,2.09E2,2.2125E2,4.9265E2,3.75E0,5.095E1,1.17850006E2,3.0575E2,7.6200005E1,1.08645E3,2.5515E3,6.68E1,1.927E2,8.95E1,3.4859502E3,9.155E1,7.3515E2,5.6525E2,1.7640001E2,3.0735E2,8.6575E2,3.625E1,4.1235E2,2.177E2,1.427E2,2.2650002E1,5E0,3.05E1,1.6848E3,5.665E1,1.553E2,1.6065E2,9.4700005E1,2.625E1,5.9E1,6.964E2,1.0494101E4,4.14425E3,1.482E2,1.32465E3,1.2676001E3,4.75E2,1.7344E3,9.4675E2,1.37065E3,1.077E2,2.9115E2,1.48635E3,1.3172001E3,7.13E2],"tree_param":{"num_deleted":"0","num_feature":"9","num_nodes":"119","size_leaf_vector":"0"}},{"base_weights":[-2.399541E-3,-6.730842E-1,3.8618925E-1,-1.2206833E0,-3.6409733E-1,-4.5746312E-1,5.1237035E-1,-1.3692933E0,-8.148442E-1,-8.8257813E-1,-1.2131491E-2,1.2067728E-2,-6.2721545E-1,7.0937514E-1,-2.4287839E-1,-1.3913739E0,-1.0406841E-1,-2.6130754E-1,-1.0571277E0,-9.6988E-1,-2.7597705E-1,2.1576326E-1,-6.727274E-1,7.588323E-1,-1.6397737E-1,-3.86091E-1,-8.004459E-1,9.5686525E-1,1.1640596E-1,-1.1651213E0,2.5115544E-1,-1.4105291E0,-1.7287123E-1,3.6962533E-1,-1.5297799E0,1.457953E-1,-1.22796E0,-1.133947E0,6.910147E-1,-5.350784E-1,-1.0870006E0,1.2389036E-1,-1.19296E0,5.059166E-1,-5.255105E-1,-7.802475E-2,-1.0531453E0,1.055746E0,-1.9136822E0,2.763252E-1,-3.8059583E-1,-2.0070939E-1,-9.3077296E-1,1.5994401E0,-8.1935036E-1,1.1316224E0,3.6451316E-1,7.7670264E-1,-1.2239991E-1,-8.5680103E-1,-1.2784936E0,1.1032068E0,-1.7315327E-1,-1.2954192E0,-1.4695181E0,-1.5175829E0,1.2148389E0,-2.6877406E-1,1.2378553E0,2.4804541E-1,-1.5700871E0,-1.3379949E0,1.4617922E0,-8.800265E-1,-1.5478201E0,1.1149688E0,-1.6786385E0,2.7949697E-1,-1.2913208E0,-1.2213118E0,-6.996239E-1,1.890237E0,-1.559638E-1,9.300237E-1,-1.4254507E0,5.5603874E-1,-1.3530306E0,-2.4165125E-1,-9.190802E-1,6.1872554E-1,-6.2244713E-1,-1.1410277E0,4.5218775E-1,-5.125438E-1,1.2067466E0,5.129724E-1,-1.6571728E0,-6.233367E-1,3.258524E-1,7.4607E-1,-3.598444E-1,-1.0959699E0,1.0914214E0,-9.343958E-1,1.9454386E0,-6.9234127E-1,-1.1919405E0,1.29596E0,7.330356E-1,4.5979628E-1,-7.220906E-1,1.2327465E0,-1.4138931E-1,-3.551024E-1,5.4157335E-1,-9.758763E-1,5.7611537E-1,1.6949067E0,-1.293269E0,1.2405872E0,-1.049217E0,2.4016708E-1,-6.2904835E-1],"categories":[],"categories_nodes":[],"categories_segments":[],"categories_sizes":[],"default_left":[true,true,true,true,true,true,true,true,true,true,true,true,true,true,true,true,true,true,true,true,true,true,true,true,true,true,true,true,true,true,true,true,true,true,false,true,true,true,true,true,true,true,true,true,true,true,true,true,false,true,true,true,true,true,true,true,true,true,true,true,true,true,true,false,false,false,false,false,false,false,false,false,false,false,false,false,false,false,false,false,false,false,false,false,false,false,false,false,false,false,false,false,false,false,false,false,false,false,false,false,false,false,false,false,false,false,false,false,false,false,false,false,false,false,false,false,false,false,false,false,false,false,false],"id":1,"left_children":[1,3,5,7,9,11,13,15,17,19,21,23,25,27,29,31,33,35,37,39,41,43,45,47,49,51,53,55,57,59,61,63,65,67,-1,69,71,73,75,77,79,81,83,85,87,89,91,93,-1,95,97,99,101,103,105,107,109,111,113,115,117,119,121,-1,-1,-1,-1,-1,-1,-1,-1,-1,-1,-1,-1,-1,-1,-1,-1,-1,-1,-1,-1,-1,-1,-1,-1,-1,-1,-1,-1,-1,-1,-1,-1,-1,-1,-1,-1,-1,-1,-1,-1,-1,-1,-1,-1,-1,-1,-1,-1,-1,-1,-1,-1,-1,-1,-1,-1,-1,-1,-1,-1],"loss_changes":[1.1770082E4,2.8027666E3,3.0441958E3,3.5929102E2,1.9330096E3,2.9657263E2,3.7012026E3,1.2201172E2,2.1486157E2,2.2655518E2,9.5016736E2,1.3014175E2,1.138418E2,2.8951562E3,2.3453032E3,1.000625E2,5.1947147E1,1.9289139E2,1.5057874E2,1.9007104E2,1.9824901E2,1.0095719E3,3.6616223E2,1.5187299E2,7.651652E1,1.15373566E2,7.3418396E1,1.440459E3,9.163349E2,6.166748E1,1.2121678E3,2.6825195E1,1.2808754E2,3.2432526E1,0E0,6.10034E1,4.4938248E1,1.1096692E2,4.966638E1,4.9097662E2,1.5254907E2,1.867124E2,8.234541E1,3.1503406E2,1.4731177E2,2.403612E2,1.3111829E2,4.1021194E1,0E0,1.2199077E2,9.2356735E1,1.2910654E2,9.818445E1,1.3005257E1,7.383142E1,7.030498E2,3.287879E2,6.464113E2,6.5966144E2,8.3445496E1,5.9778076E1,3.308817E2,4.2200156E2,0E0,0E0,0E0,0E0,0E0,0E0,0E0,0E0,0E0,0E0,0E0,0E0,0E0,0E0,0E0,0E0,0E0,0E0,0E0,0E0,0E0,0E0,0E0,0E0,0E0,0E0,0E0,0E0,0E0,0E0,0E0,0E0,0E0,0E0,0E0,0E0,0E0,0E0,0E0,0E0,0E0,0E0,0E0,0E0,0E0,0E0,0E0,0E0,0E0,0E0,0E0,0E0,0E0,0E0,0E0,0E0,0E0,0E0,0E0,0E0],"parents":[2147483647,0,0,1,1,2,2,3,3,4,4,5,5,6,6,7,7,8,8,9,9,10,10,11,11,12,12,13,13,14,14,15,15,16,16,17,17,18,18,19,19,20,20,21,21,22,22,23,23,24,24,25,25,26,26,27,27,28,28,29,29,30,30,31,31,32,32,33,33,35,35,36,36,37,37,38,38,39,39,40,40,41,41,42,42,43,43,44,44,45,45,46,46,47,47,49,49,50,50,51,51,52,52,53,53,54,54,55,55,56,56,57,57,58,58,59,59,60,60,61,61,62,62],"right_children":[2,4,6,8,10,12,14,16,18,20,22,24,26,28,30,32,34,36,38,40,42,44,46,48,50,52,54,56,58,60,62,64,66,68,-1,70,72,74,76,78,80,82,84,86,88,90,92,94,-1,96,98,100,102,104,106,108,110,112,114,116,118,120,122,-1,-1,-1,-1,-1,-1,-1,-1,-1,-1,-1,-1,-1,-1,-1,-1,-1,-1,-1,-1,-1,-1,-1,-1,-1,-1,-1,-1,-1,-1,-1,-1,-1,-1,-1,-1,-1,-1,-1,-1,-1,-1,-1,-1,-1,-1,-1,-1,-1,-1,-1,-1,-1,-1,-1,-1,-1,-1,-1,-1],"split_conditions":[2.0887233E-2,-7.2312045E-1,-1.0244384E0,7.298037E-1,-2.087866E-1,-9.664358E-1,1.0958252E0,1.1452656E0,-1.0652237E0,6.2118983E-1,1.3793248E0,-8.888535E-1,-3.1517547E-1,5.5547225E-1,-2.4327469E-1,8.7838066E-1,-7.03109E-1,-2.942524E-1,2.9473388E-1,7.885518E-1,1.2128336E0,9.326791E-1,-1.136152E0,2.802591E-1,-3.885101E-1,-6.042006E-1,3.0626673E-1,1.1356277E0,4.3108842E-1,3.350909E-2,-3.589108E-1,-8.5435486E-1,1.2930839E0,-1.2533112E0,-4.5893398E-1,7.766444E-1,1.1297042E0,-4.8417413E-1,1.179457E0,1.0006921E0,1.12072416E-1,1.09046325E-2,-1.58584E0,1.5688512E0,7.985734E-1,1.5970165E0,2.525622E-1,1.2781623E-1,-5.7410467E-1,-2.3392418E-1,3.3025306E-1,-2.736846E-1,1.31874345E-2,2.826587E-1,1.07495196E-1,8.078501E-1,1.6785011E0,1.3712342E0,-1.5805246E-1,3.5499597E0,2.325894E-2,1.6529918E0,1.4703019E0,-3.8862577E-1,-4.4085544E-1,-4.5527488E-1,3.6445168E-1,-8.0632225E-2,3.713566E-1,7.441363E-2,-4.7102615E-1,-4.013985E-1,4.385377E-1,-2.6400796E-1,-4.6434605E-1,3.3449066E-1,-5.0359154E-1,8.3849095E-2,-3.8739625E-1,-3.6639357E-1,-2.0988718E-1,5.6707114E-1,-4.678914E-2,2.7900714E-1,-4.2763522E-1,1.6681163E-1,-4.0590918E-1,-7.249538E-2,-2.7572408E-1,1.8561767E-1,-1.8673414E-1,-3.423083E-1,1.3565633E-1,-1.5376315E-1,3.6202398E-1,1.5389173E-1,-4.9715185E-1,-1.87001E-1,9.775572E-2,2.2382101E-1,-1.0795332E-1,-3.28791E-1,3.2742643E-1,-2.8031874E-1,5.8363163E-1,-2.0770238E-1,-3.5758218E-1,3.88788E-1,2.199107E-1,1.3793889E-1,-2.166272E-1,3.6982396E-1,-4.2416796E-2,-1.0653072E-1,1.6247201E-1,-2.927629E-1,1.7283462E-1,5.08472E-1,-3.8798073E-1,3.7217617E-1,-3.147651E-1,7.2050124E-2,-1.8871452E-1],"split_indices":[2,5,5,8,8,3,5,1,3,1,8,4,0,4,8,7,7,6,1,4,5,4,4,0,8,4,1,8,5,4,4,3,6,5,0,0,1,0,8,5,3,4,0,5,5,8,5,8,0,4,8,8,4,1,3,5,8,4,8,7,2,5,5,0,0,0,0,0,0,0,0,0,0,0,0,0,0,0,0,0,0,0,0,0,0,0,0,0,0,0,0,0,0,0,0,0,0,0,0,0,0,0,0,0,0,0,0,0,0,0,0,0,0,0,0,0,0,0,0,0,0,0,0],"split_type":[0,0,0,0,0,0,0,0,0,0,0,0,0,0,0,0,0,0,0,0,0,0,0,0,0,0,0,0,0,0,0,0,0,0,0,0,0,0,0,0,0,0,0,0,0,0,0,0,0,0,0,0,0,0,0,0,0,0,0,0,0,0,0,0,0,0,0,0,0,0,0,0,0,0,0,0,0,0,0,0,0,0,0,0,0,0,0,0,0,0,0,0,0,0,0,0,0,0,0,0,0,0,0,0,0,0,0,0,0,0,0,0,0,0,0,0,0,0,0,0,0,0,0],"sum_hessian":[4.515976E4,1.6566348E4,2.8593414E4,5.9747324E3,1.0591616E4,3.719832E3,2.4873582E4,4.3715767E3,1.6031558E3,4.282119E3,6.3094966E3,9.8799384E2,2.7318381E3,1.9727717E4,5.145865E3,4.296495E3,7.508152E1,4.8870566E2,1.1144501E3,3.7428503E3,5.3926874E2,4.6916333E3,1.6178632E3,1.878488E2,8.00145E2,1.1434567E3,1.5883815E3,1.3918062E4,5.8096543E3,1.7945367E3,3.3513289E3,4.2298433E3,6.66523E1,5.6912907E1,1.8168613E1,3.4447864E2,1.44227E2,1.0678754E3,4.6574768E1,7.9543274E2,2.9474177E3,3.761197E2,1.6314906E2,3.3720464E3,1.3195869E3,6.316373E2,9.8622577E2,1.6961023E2,1.8238562E1,2.6375543E2,5.363896E2,8.5412506E2,2.8933154E2,1.1760809E1,1.5766207E3,1.0746647E4,3.1714143E3,1.5424733E3,4.267181E3,4.8476337E2,1.3097733E3,1.1135721E3,2.2377566E3,1.440954E3,2.788889E3,3.380305E1,3.2849247E1,3.3195255E1,2.3717651E1,3.259128E2,1.8565834E1,1.3904152E2,5.1854863E0,6.63766E2,4.041093E2,3.9955772E1,6.6189966E0,3.8325052E2,4.1218222E2,2.1869912E3,7.604264E2,5.065401E1,3.254657E2,1.5807052E1,1.4734201E2,3.2841968E3,8.7849815E1,7.675855E2,5.520014E2,2.769987E2,3.5463864E2,9.320539E2,5.417191E1,1.4686123E1,1.5492412E2,2.3564833E2,2.8107088E1,3.993036E2,1.3708601E2,1.2237317E2,7.317519E2,2.67904E2,2.1427567E1,1.2086892E0,1.055212E1,1.1779408E3,3.9867993E2,7.607728E3,3.1389194E3,2.9162666E3,2.5514749E2,1.0303331E3,5.121401E2,3.16012E3,1.107061E3,4.478648E2,3.6898567E1,5.914046E0,1.3038593E3,1.0471599E3,6.641231E1,1.1739298E3,1.0638268E3],"tree_param":{"num_deleted":"0","num_feature":"9","num_nodes":"123","size_leaf_vector":"0"}},{"base_weights":[-2.9548535E-3,-5.162348E-1,2.9946843E-1,-9.917196E-1,-2.7302012E-1,9.881751E-1,1.8401422E-1,-1.1601233E0,-6.540457E-1,-6.703912E-1,3.6988077E-3,1.2163975E0,7.3672974E-1,-3.2343173E-1,2.837839E-1,-1.1858087E0,-1.4200798E-1,-7.2950417E-1,5.632111E-1,-7.7364266E-1,-2.5788972E-1,2.1835516E-1,-4.883063E-1,1.3242869E0,8.187216E-1,1.0603415E0,2.1146388E-1,3.987239E-2,-4.5985478E-1,4.76372E-1,-1.8324092E-1,-1.2904879E0,-9.943789E-1,2.7530113E-1,-1.420031E0,-4.6409768E-1,-1.0839964E0,-1.5757922E0,8.0955946E-1,-3.4720197E-1,-8.842291E-1,3.112556E-2,-1.0686218E0,4.9846765E-1,-2.2316098E-1,3.6775533E-2,-8.8119423E-1,-6.6721547E-1,1.3521005E0,-1.4589101E0,9.2177796E-1,1.188093E0,5.7473195E-1,-5.7341975E-1,5.754929E-1,1.5133452E-1,-1.124493E0,-2.7999172E-1,-6.6831756E-1,5.9555143E-1,-3.5785222E-1,3.9674383E-1,-6.145965E-1,-1.056523E0,-1.3204424E0,2.8469248E0,-1.0103283E0,-1.2056686E0,1.0678916E0,1.6257107E-1,-6.739097E-1,-2.9252392E-1,-1.2443286E0,9.219528E-1,-1.6131891E0,1.786516E-1,-1.2444568E0,-9.5011246E-1,-2.928806E-1,-5.8820546E-1,4.522322E-1,5.401346E-1,-1.2047439E0,-2.836054E-2,7.0767E-1,1.575078E-1,-6.191197E-1,3.190849E-1,-1.1560516E0,-1.0013278E0,1.9733253E-1,-1.6879689E0,5.860926E-1,1.3551364E0,-1.4325858E0,-2.2406883E0,9.808296E-1,1.2851208E0,8.8003117E-1,-8.2514495E-2,1.0400747E0,-1.3849561E-1,-1.6218857E0,7.156465E-1,-1.1000204E0,-4.0273376E-2,8.0028355E-1,2.680633E-1,-1.5544076E0,-3.8202095E-1,4.2024204E-1,-1.8706805E-1,-7.993503E-1,6.6807276E-1,-4.7083907E-2,6.4764726E-1,-5.243115E-1,-4.0497383E-1,6.03295E-1,-1.0347204E0,-3.4157753E-1],"categories":[],"categories_nodes":[],"categories_segments":[],"categories_sizes":[],"default_left":[true,true,true,true,true,true,true,true,true,true,true,true,true,true,true,true,true,true,true,true,true,true,true,true,true,true,true,true,true,true,true,true,true,true,false,true,true,false,true,true,true,true,true,true,true,true,true,true,true,false,true,true,true,true,true,true,true,true,true,true,true,true,true,false,false,false,false,false,false,false,false,false,false,false,false,false,false,false,false,false,false,false,false,false,false,false,false,false,false,false,false,false,false,false,false,false,false,false,false,false,false,false,false,false,false,false,false,false,false,false,false,false,false,false,false,false,false,false,false,false,false],"id":2,"left_children":[1,3,5,7,9,11,13,15,17,19,21,23,25,27,29,31,33,35,37,39,41,43,45,47,49,51,53,55,57,59,61,63,65,67,-1,69,71,-1,73,75,77,79,81,83,85,87,89,91,93,-1,95,97,99,101,103,105,107,109,111,113,115,117,119,-1,-1,-1,-1,-1,-1,-1,-1,-1,-1,-1,-1,-1,-1,-1,-1,-1,-1,-1,-1,-1,-1,-1,-1,-1,-1,-1,-1,-1,-1,-1,-1,-1,-1,-1,-1,-1,-1,-1,-1,-1,-1,-1,-1,-1,-1,-1,-1,-1,-1,-1,-1,-1,-1,-1,-1,-1,-1],"loss_changes":[6.560831E3,1.8118989E3,2.1145515E3,3.0077295E2,1.140133E3,2.1820996E2,1.1533187E3,9.2319824E1,1.6269366E2,1.810857E2,6.45734E2,8.472412E1,3.0900433E2,1.8553992E2,1.7122886E3,6.7842285E1,4.7412876E1,1.5606158E2,5.591669E1,1.602102E2,2.0004584E2,5.265845E2,3.8318237E2,8.7951416E1,1.021398E2,6.913501E1,1.98838E2,1.3290923E2,1.0184967E2,1.3402891E3,1.3909459E3,1.4210693E1,7.785681E1,8.0286575E1,0E0,1.2546039E2,8.995227E1,0E0,2.6987255E1,3.317093E2,1.05E2,1.646383E2,4.978232E1,2.8710938E2,2.4926688E2,2.6837234E2,1.378498E2,2.95382E1,1.5047119E1,0E0,7.903406E1,2.5473999E1,7.23693E1,1.0038526E2,1.1236136E2,1.1620737E2,5.398259E1,1.0465604E2,7.928949E1,5.496924E2,2.8245087E2,3.929622E2,3.6534656E2,0E0,0E0,0E0,0E0,0E0,0E0,0E0,0E0,0E0,0E0,0E0,0E0,0E0,0E0,0E0,0E0,0E0,0E0,0E0,0E0,0E0,0E0,0E0,0E0,0E0,0E0,0E0,0E0,0E0,0E0,0E0,0E0,0E0,0E0,0E0,0E0,0E0,0E0,0E0,0E0,0E0,0E0,0E0,0E0,0E0,0E0,0E0,0E0,0E0,0E0,0E0,0E0,0E0,0E0,0E0,0E0,0E0,0E0],"parents":[2147483647,0,0,1,1,2,2,3,3,4,4,5,5,6,6,7,7,8,8,9,9,10,10,11,11,12,12,13,13,14,14,15,15,16,16,17,17,18,18,19,19,20,20,21,21,22,22,23,23,24,24,25,25,26,26,27,27,28,28,29,29,30,30,31,31,32,32,33,33,35,35,36,36,38,38,39,39,40,40,41,41,42,42,43,43,44,44,45,45,46,46,47,47,48,48,50,50,51,51,52,52,53,53,54,54,55,55,56,56,57,57,58,58,59,59,60,60,61,61,62,62],"right_children":[2,4,6,8,10,12,14,16,18,20,22,24,26,28,30,32,34,36,38,40,42,44,46,48,50,52,54,56,58,60,62,64,66,68,-1,70,72,-1,74,76,78,80,82,84,86,88,90,92,94,-1,96,98,100,102,104,106,108,110,112,114,116,118,120,-1,-1,-1,-1,-1,-1,-1,-1,-1,-1,-1,-1,-1,-1,-1,-1,-1,-1,-1,-1,-1,-1,-1,-1,-1,-1,-1,-1,-1,-1,-1,-1,-1,-1,-1,-1,-1,-1,-1,-1,-1,-1,-1,-1,-1,-1,-1,-1,-1,-1,-1,-1,-1,-1,-1,-1,-1,-1],"split_conditions":[8.318587E-2,-7.2312045E-1,-6.34078E-1,6.175497E-1,-6.43837E-2,-3.399448E-2,-9.864483E-1,1.1467388E0,2.9473388E-1,4.225409E-1,1.3043644E0,1.0446823E0,7.2710276E-1,-9.664358E-1,9.611461E-1,-5.181798E-1,-7.03109E-1,-1.6023962E0,-1.1820838E0,7.5567096E-1,1.2128336E0,7.474724E-1,-5.0660896E-1,-2.3726216E-2,-6.715288E-1,8.210641E-1,1.3570066E-2,1.7466856E0,9.808095E-1,1.1058381E0,3.4206829E-3,-1.2528324E0,-5.1800483E-1,-9.110309E-1,-4.260093E-1,1.0205652E0,-1.3531278E0,-4.7273767E-1,1.7733271E0,1.0911896E0,8.4136707E-1,-1.0739654E0,-1.58584E0,-1.843918E-1,7.84186E-1,-9.546628E-1,1.689888E0,1.9108164E0,2.959577E0,-4.3767306E-1,7.15857E-1,6.1197054E-1,4.0001452E-1,9.124081E-1,8.7551546E-1,-1.1185939E0,-4.6830285E-1,-1.1240876E0,1.1561795E0,1.4204283E0,2.4111602E-1,-1.2580448E-1,-4.85844E-1,-3.169569E-1,-3.9613274E-1,8.5407746E-1,-3.030985E-1,-3.617006E-1,3.203675E-1,4.8771325E-2,-2.0217292E-1,-8.775718E-2,-3.732986E-1,2.7658585E-1,-4.8395675E-1,5.3595483E-2,-3.7333703E-1,-2.8503376E-1,-8.786418E-2,-1.7646164E-1,1.3566966E-1,1.6204038E-1,-3.6142316E-1,-8.508163E-3,2.12301E-1,4.7252346E-2,-1.8573591E-1,9.572548E-2,-3.468155E-1,-3.0039835E-1,5.919976E-2,-5.063907E-1,1.7582779E-1,4.0654093E-1,-4.2977577E-1,-6.722065E-1,2.9424888E-1,3.8553628E-1,2.6400936E-1,-2.475435E-2,3.1202242E-1,-4.1548684E-2,-4.865657E-1,2.1469396E-1,-3.3000612E-1,-1.2082013E-2,2.4008508E-1,8.0419E-2,-4.663223E-1,-1.1460629E-1,1.2607262E-1,-5.6120414E-2,-2.398051E-1,2.0042184E-1,-1.4125173E-2,1.9429418E-1,-1.5729345E-1,-1.21492155E-1,1.8098852E-1,-3.1041613E-1,-1.0247327E-1],"split_indices":[2,5,1,8,8,4,5,1,1,1,8,5,5,3,5,7,7,2,4,4,5,4,3,5,8,4,8,2,2,4,4,3,7,7,0,8,4,0,6,5,3,8,0,5,5,4,6,8,3,0,2,5,3,5,8,5,8,5,1,8,5,8,8,0,0,0,0,0,0,0,0,0,0,0,0,0,0,0,0,0,0,0,0,0,0,0,0,0,0,0,0,0,0,0,0,0,0,0,0,0,0,0,0,0,0,0,0,0,0,0,0,0,0,0,0,0,0,0,0,0,0],"split_type":[0,0,0,0,0,0,0,0,0,0,0,0,0,0,0,0,0,0,0,0,0,0,0,0,0,0,0,0,0,0,0,0,0,0,0,0,0,0,0,0,0,0,0,0,0,0,0,0,0,0,0,0,0,0,0,0,0,0,0,0,0,0,0,0,0,0,0,0,0,0,0,0,0,0,0,0,0,0,0,0,0,0,0,0,0,0,0,0,0,0,0,0,0,0,0,0,0,0,0,0,0,0,0,0,0,0,0,0,0,0,0,0,0,0,0,0,0,0,0,0,0],"sum_hessian":[4.2263832E4,1.5669122E4,2.659471E4,5.301537E3,1.0367585E4,3.8171448E3,2.2777566E4,3.5357578E3,1.7657793E3,4.2553857E3,6.1121987E3,1.9989633E3,1.8181815E3,3.7421418E3,1.9035426E4,3.4485913E3,8.716659E1,1.6630845E3,1.02694885E2,3.4027764E3,8.526093E2,4.255937E3,1.8562618E3,1.5705449E3,4.284184E2,1.1244185E3,6.9376306E2,1.0217796E3,2.7203623E3,1.3477611E4,5.557814E3,2.2257476E3,1.2228438E3,6.6301834E1,2.0864754E1,9.5236383E2,7.1072064E2,1.004853E1,9.2646355E1,7.015639E2,2.7012126E3,6.2925116E2,2.2335814E2,2.6038435E3,1.6520936E3,7.948616E2,1.0614001E3,2.1315704E1,1.5492291E3,1.7976065E1,4.1044235E2,8.8907806E2,2.3534033E2,2.196342E2,4.7412888E2,9.333063E2,8.847332E1,1.4616144E3,1.2587478E3,1.1793104E4,1.6845072E3,2.3705457E3,3.187268E3,2.5673648E2,1.969011E3,4.3224025E0,1.2185214E3,2.2931927E1,4.3369904E1,2.3893513E2,7.134287E2,1.201972E2,5.9052344E2,8.913096E1,3.515399E0,4.428336E2,2.5873032E2,2.4298872E3,2.7132526E2,2.5452246E2,3.7472873E2,1.7193151E1,2.0616498E2,7.4033734E2,1.8635061E3,8.4261676E2,8.094769E2,6.4333453E2,1.5152708E2,9.550877E2,1.0631246E2,1.1556628E1,9.759075E0,1.5480548E3,1.1743641E0,6.8463516E0,4.0359598E2,6.737125E2,2.1536557E2,9.78958E1,1.3744455E2,1.5603848E2,6.3595715E1,4.3805893E2,3.606994E1,7.2127997E2,2.120263E2,2.0959358E1,6.751396E1,1.2761276E3,1.854868E2,2.6990054E2,9.888473E2,1.0597175E4,1.1959291E3,2.3884856E2,1.4456587E3,4.8542673E2,1.885119E3,1.25432E3,1.9329481E3],"tree_param":{"num_deleted":"0","num_feature":"9","num_nodes":"121","size_leaf_vector":"0"}},{"base_weights":[-3.982065E-3,-3.9806405E-1,2.312021E-1,-8.141014E-1,-1.9745943E-1,6.499284E-1,1.0478231E-1,-9.975045E-1,-3.8690105E-1,-6.1050034E-3,-5.6274694E-1,8.9293504E-1,1.840347E-1,1.9548632E-1,-3.282583E-1,-1.0166156E0,8.412668E-2,-1.2512814E-1,-7.820695E-1,6.181075E-1,-1.4011896E-1,-4.764558E-1,-1.0695994E0,1.1316197E0,6.284005E-1,6.4765435E-1,-3.1365472E-1,-2.2655916E-1,3.2072604E-1,7.5105244E-1,-4.679891E-1,-1.0015252E0,-2.2485456E0,-1.3678453E0,1.1743072E0,-2.7957872E-1,7.496175E-1,-1.0513499E0,-3.4888893E-1,1.0833685E0,4.0429932E-1,4.2166635E-1,-2.5935963E-1,-5.466785E-1,2.723314E-2,-1.1613272E0,-1.6514994E-1,1.1667224E0,8.502796E-1,-4.795381E-1,7.610058E-1,9.8635185E-1,3.1253636E-2,-7.825408E-1,2.4537979E-1,-1.00115374E-1,-5.399826E-1,5.570431E-1,-2.2322608E-2,1.0027301E0,-1.5205541E-1,-7.689653E-1,-1.7928667E-1,-1.1076115E0,-8.287234E-1,1.4674923E0,-1.2292364E0,-6.0452896E-1,1.4768486E-1,1.0034103E0,-3.4958497E-1,9.1819566E-1,-1.1575466E0,-2.1899126E-2,-1.4071548E0,-1.7764171E0,1.1579345E0,-1.679054E0,5.0808454E-1,4.981396E-1,-1.484123E0,6.521423E-1,-3.676351E-1,-7.5036347E-1,-3.7224734E-1,-9.353003E-1,3.4297293E-1,-9.1226375E-1,-1.4361904E0,-9.1873E-1,2.0933945E0,1.2143042E0,1.0821453E0,1.0410153E0,-4.2234904E-1,-1.2509178E0,5.0605338E-2,7.914858E-1,-1.734868E0,1.0574319E0,5.281798E-1,5.833844E-1,-4.7127143E-1,-7.7037245E-2,-1.4142514E0,5.089657E-1,-1.3712375E0,4.7018886E-2,-4.316173E-1,-8.284762E-1,-1.590526E-1,8.275434E-1,1.5148257E-1,3.696366E-1,-3.768181E-1,-1.4654065E0,1.09983E0,2.6745656E-1,-2.014725E0,-6.231008E-1,-1.2058785E0,9.048894E-1,-3.440987E-1],"categories":[],"categories_nodes":[],"categories_segments":[],"categories_sizes":[],"default_left":[true,true,true,true,true,true,true,true,true,true,true,true,true,true,true,true,true,true,true,true,true,true,true,true,true,true,true,true,true,true,true,true,false,false,true,true,true,true,true,true,true,true,true,true,true,true,true,true,true,true,true,true,true,true,true,true,true,true,true,true,true,true,true,false,false,false,false,false,false,false,false,false,false,false,false,false,false,false,false,false,false,false,false,false,false,false,false,false,false,false,false,false,false,false,false,false,false,false,false,false,false,false,false,false,false,false,false,false,false,false,false,false,false,false,false,false,false,false,false,false,false,false,false],"id":3,"left_children":[1,3,5,7,9,11,13,15,17,19,21,23,25,27,29,31,33,35,37,39,41,43,45,47,49,51,53,55,57,59,61,63,-1,-1,65,67,69,71,73,75,77,79,81,83,85,87,89,91,93,95,97,99,101,103,105,107,109,111,113,115,117,119,121,-1,-1,-1,-1,-1,-1,-1,-1,-1,-1,-1,-1,-1,-1,-1,-1,-1,-1,-1,-1,-1,-1,-1,-1,-1,-1,-1,-1,-1,-1,-1,-1,-1,-1,-1,-1,-1,-1,-1,-1,-1,-1,-1,-1,-1,-1,-1,-1,-1,-1,-1,-1,-1,-1,-1,-1,-1,-1,-1,-1],"loss_changes":[3.6638232E3,1.2329062E3,1.3104333E3,3.761709E2,6.9685345E2,6.497932E2,7.470149E2,6.958008E1,1.49401E2,5.474537E2,1.4938257E2,2.3749805E2,4.5457452E2,8.311942E2,4.9709418E2,5.9163086E1,9.546166E1,1.1782174E2,6.678522E1,1.1462555E2,3.6101224E2,1.0366278E2,4.110559E1,1.8581787E1,2.6359833E2,2.1288116E2,2.4930905E2,1.425695E2,9.830593E2,8.605229E1,2.533139E2,5.8943604E1,0E0,0E0,2.6047607E1,1.0291567E2,3.6870842E1,7.521124E1,7.685254E1,7.959064E1,1.7255342E2,1.3827515E2,4.3892224E2,9.109595E1,1.0957804E2,2.9617859E1,8.1919174E1,5.7666016E0,5.4702988E1,7.863454E1,1.2313458E2,2.0875061E1,1.0090483E2,2.303505E2,1.8575116E2,1.25155624E2,1.135325E2,7.875593E2,6.8752704E2,7.247604E1,6.557966E1,9.023993E1,2.665667E2,0E0,0E0,0E0,0E0,0E0,0E0,0E0,0E0,0E0,0E0,0E0,0E0,0E0,0E0,0E0,0E0,0E0,0E0,0E0,0E0,0E0,0E0,0E0,0E0,0E0,0E0,0E0,0E0,0E0,0E0,0E0,0E0,0E0,0E0,0E0,0E0,0E0,0E0,0E0,0E0,0E0,0E0,0E0,0E0,0E0,0E0,0E0,0E0,0E0,0E0,0E0,0E0,0E0,0E0,0E0,0E0,0E0,0E0,0E0,0E0],"parents":[2147483647,0,0,1,1,2,2,3,3,4,4,5,5,6,6,7,7,8,8,9,9,10,10,11,11,12,12,13,13,14,14,15,15,16,16,17,17,18,18,19,19,20,20,21,21,22,22,23,23,24,24,25,25,26,26,27,27,28,28,29,29,30,30,31,31,34,34,35,35,36,36,37,37,38,38,39,39,40,40,41,41,42,42,43,43,44,44,45,45,46,46,47,47,48,48,49,49,50,50,51,51,52,52,53,53,54,54,55,55,56,56,57,57,58,58,59,59,60,60,61,61,62,62],"right_children":[2,4,6,8,10,12,14,16,18,20,22,24,26,28,30,32,34,36,38,40,42,44,46,48,50,52,54,56,58,60,62,64,-1,-1,66,68,70,72,74,76,78,80,82,84,86,88,90,92,94,96,98,100,102,104,106,108,110,112,114,116,118,120,122,-1,-1,-1,-1,-1,-1,-1,-1,-1,-1,-1,-1,-1,-1,-1,-1,-1,-1,-1,-1,-1,-1,-1,-1,-1,-1,-1,-1,-1,-1,-1,-1,-1,-1,-1,-1,-1,-1,-1,-1,-1,-1,-1,-1,-1,-1,-1,-1,-1,-1,-1,-1,-1,-1,-1,-1,-1,-1,-1,-1],"split_conditions":[1.7821139E-1,-6.6318405E-1,-4.493701E-1,7.8167796E-1,1.044611E0,3.4746414E-1,1.0985607E0,8.7838066E-1,-6.591098E-1,-7.198918E-1,1.9000018E0,8.4106994E-1,6.061481E-1,-9.864483E-1,-4.9963406E-1,-7.133602E-1,1.6765138E-2,-5.654377E-1,-9.0374446E-1,6.0653865E-1,-1.1076459E0,3.873999E-1,-2.078613E-1,2.0349392E-1,-5.535641E-1,9.8734045E-1,-4.7230855E-2,-2.0135358E-1,3.7891716E-1,1.5264822E0,1.8452491E-1,-4.3712384E-1,-6.745637E-1,-4.103536E-1,-1.0493996E0,-9.211449E-1,1.488506E-1,-1.4366157E0,1.4588261E0,-4.1798836E-1,-1.109638E0,1.5957205E0,-1.2130005E0,-4.7576153E-1,-9.7924423E-1,-6.6835535E-1,5.254415E-1,-8.616395E-2,7.351755E-1,1.365332E0,1.6428058E0,5.5697757E-1,3.955145E-1,-6.3432664E-1,1.0283072E0,-9.268256E-2,6.938044E-2,1.1184931E0,6.0786855E-1,-2.1550897E-1,3.3172002E-1,1.1003973E0,3.528805E-1,-3.3228347E-1,-2.4861702E-1,4.402477E-1,-3.6877093E-1,-1.813587E-1,4.430546E-2,3.0102313E-1,-1.048755E-1,2.7545872E-1,-3.47264E-1,-6.569738E-3,-4.2214647E-1,-5.329252E-1,3.4738037E-1,-5.0371623E-1,1.5242536E-1,1.4944188E-1,-4.4523692E-1,1.956427E-1,-1.10290535E-1,-2.2510906E-1,-1.11674204E-1,-2.805901E-1,1.02891885E-1,-2.7367914E-1,-4.3085712E-1,-2.7561903E-1,6.280184E-1,3.6429128E-1,3.246436E-1,3.123046E-1,-1.2670472E-1,-3.7527534E-1,1.5181602E-2,2.3744574E-1,-5.204604E-1,3.172296E-1,1.5845396E-1,1.7501533E-1,-1.4138143E-1,-2.3111174E-2,-4.2427546E-1,1.5268971E-1,-4.1137126E-1,1.4105666E-2,-1.2948519E-1,-2.4854286E-1,-4.771578E-2,2.4826302E-1,4.544477E-2,1.10890985E-1,-1.1304543E-1,-4.3962198E-1,3.2994902E-1,8.023697E-2,-6.044175E-1,-1.8693025E-1,-3.6176357E-1,2.7146682E-1,-1.0322961E-1],"split_indices":[2,5,1,8,4,4,5,7,3,2,4,5,5,5,4,5,3,1,5,5,0,1,2,4,8,4,8,3,4,5,8,2,0,0,5,5,6,1,8,5,8,8,4,3,2,0,0,4,5,7,5,5,5,1,5,6,6,1,5,8,1,2,8,0,0,0,0,0,0,0,0,0,0,0,0,0,0,0,0,0,0,0,0,0,0,0,0,0,0,0,0,0,0,0,0,0,0,0,0,0,0,0,0,0,0,0,0,0,0,0,0,0,0,0,0,0,0,0,0,0,0,0,0],"split_type":[0,0,0,0,0,0,0,0,0,0,0,0,0,0,0,0,0,0,0,0,0,0,0,0,0,0,0,0,0,0,0,0,0,0,0,0,0,0,0,0,0,0,0,0,0,0,0,0,0,0,0,0,0,0,0,0,0,0,0,0,0,0,0,0,0,0,0,0,0,0,0,0,0,0,0,0,0,0,0,0,0,0,0,0,0,0,0,0,0,0,0,0,0,0,0,0,0,0,0,0,0,0,0,0,0,0,0,0,0,0,0,0,0,0,0,0,0,0,0,0,0,0,0],"sum_hessian":[3.9529195E4,1.4773523E4,2.4755672E4,4.805095E3,9.968428E3,5.7398984E3,1.9015773E4,3.3608853E3,1.44421E3,6.5422915E3,3.4261367E3,3.7716943E3,1.968204E3,1.5723007E4,3.2927673E3,3.3025923E3,5.829288E1,8.695243E2,5.746856E2,1.1556893E3,5.386602E3,2.9293567E3,4.9678015E2,1.9809985E3,1.7906958E3,1.01882355E3,9.493805E2,3.5978384E3,1.2125168E4,3.7692694E2,2.9158403E3,3.2644177E3,3.817448E1,2.4889183E1,3.3403698E1,7.3961383E2,1.2991048E2,3.5350644E2,2.2117915E2,3.6259372E2,7.930956E2,9.426949E2,4.443907E3,2.5708513E3,3.585052E2,4.5077887E2,4.600128E1,1.7584496E3,2.2254901E2,1.9113301E2,1.5995629E3,6.5714044E2,3.6168314E2,5.16103E2,4.3327744E2,2.5645476E3,1.0332908E3,7.179073E3,4.946095E3,2.9469202E2,8.223495E1,1.42676E3,1.4890804E3,2.0193123E3,1.2451056E3,3.0119194E1,3.2845047E0,4.1987103E2,3.1974283E2,1.0561286E2,2.4297615E1,1.769452E1,3.3581192E2,1.6974954E2,5.1429615E1,8.634031E0,3.539597E2,3.6914124E1,7.5618146E2,9.07037E2,3.565788E1,4.7130112E2,3.972606E3,1.1844526E3,1.3863988E3,8.806787E1,2.7043732E2,2.3875412E2,2.1202473E2,3.4937386E1,1.1063897E1,1.1167992E3,6.4165027E2,1.9370013E2,2.8848871E1,7.729954E1,1.13833466E2,1.5809391E3,1.8623774E1,5.677523E2,8.938812E1,1.7225902E2,1.8942412E2,2.4434122E2,2.717618E2,3.7312534E2,6.0152103E1,1.776792E3,7.877556E2,5.873171E2,4.4597366E2,4.3060127E3,2.8730605E3,2.3489077E3,2.5971873E3,1.0621346E1,2.8407065E2,6.781746E1,1.4417492E1,1.0714725E3,3.5528745E2,1.9590118E2,1.2931792E3],"tree_param":{"num_deleted":"0","num_feature":"9","num_nodes":"123","size_leaf_vector":"0"}},{"base_weights":[-3.0564356E-3,-3.1429502E-1,1.728614E-1,-7.018486E-1,-1.5331317E-1,6.6897917E-1,1.02161594E-1,-8.878942E-1,-3.945243E-1,-5.003215E-1,6.8266E-3,8.190882E-1,3.268096E-1,1.9091073E-1,-1.4326803E-1,-9.2197424E-1,1.2905715E-1,-8.557873E-2,-6.7460495E-1,-4.417714E-1,-1.173012E0,1.0786528E-1,-5.410527E-1,9.513455E-1,4.0621227E-1,8.064135E-1,-1.9275565E-1,3.580221E-1,-7.52346E-2,-5.970239E-1,1.4296397E-2,-1.0607563E0,-6.8685377E-1,-1.4457346E0,4.1375554E-1,-2.0390916E-1,9.532986E-1,-7.580397E-1,3.551191E-1,2.8575516E-1,-5.330768E-1,-1.2390566E0,1.1855009E0,9.697333E-1,2.0901555E-2,-1.7520906E-1,-8.2827514E-1,-1.3664557E0,9.638001E-1,4.9260357E-1,-1.0051563E0,8.3452004E-1,-1.710142E0,-1.2864889E0,1.432093E-1,6.640917E-2,5.3949684E-1,2.7737358E-1,-3.7350202E-1,4.537447E-1,-7.085957E-1,1.2783661E-1,-5.9086806E-1,-7.411239E-1,-1.1045558E0,-9.946705E-1,-4.3726504E-1,6.70041E-1,-1.3504025E0,1.3319159E-1,-5.6198585E-1,-6.466692E-3,1.4224873E0,-2.7279332E-1,-9.733596E-1,1.662078E0,-3.6285338E-1,9.0254897E-1,-1.551826E-1,-4.6106008E-1,-1.4385046E0,-1.332697E0,3.1123725E-3,-2.0025458E0,9.990069E-1,-5.502638E-1,1.6347717E-1,-3.9275604E-1,1.0248002E0,-2.4537331E-1,-1.1507076E0,1.0666519E0,8.148282E-1,6.4320415E-2,7.846261E-1,-1.9627326E0,5.314156E-1,-1.8952975E0,8.517108E-1,3.2989803E-1,-1.7664944E0,-2.4650934E0,2.1313305E-1,4.2036474E-1,-1.02347866E-1,9.2245084E-1,1.4393434E-1,7.547593E-1,-3.2463118E-1,-6.100975E-1,1.3050237E-2,1.5833067E0,-5.0010437E-1,-6.241654E-1,-1.3785901E0,4.5959353E-1,-1.6259852E-1,-4.3061456E-1,-1.7916669E0],"categories":[],"categories_nodes":[],"categories_segments":[],"categories_sizes":[],"default_left":[true,true,true,true,true,true,true,true,true,true,true,true,true,true,true,true,true,true,true,true,true,true,true,true,true,true,true,true,true,true,true,true,true,false,true,true,true,true,true,true,true,true,false,true,true,true,true,false,true,true,true,true,false,true,true,true,true,true,true,true,true,true,true,false,false,false,false,false,false,false,false,false,false,false,false,false,false,false,false,false,false,false,false,false,false,false,false,false,false,false,false,false,false,false,false,false,false,false,false,false,false,false,false,false,false,false,false,false,false,false,false,false,false,false,false,false,false,false,false],"id":4,"left_children":[1,3,5,7,9,11,13,15,17,19,21,23,25,27,29,31,33,35,37,39,41,43,45,47,49,51,53,55,57,59,61,63,65,-1,67,69,71,73,75,77,79,81,-1,83,85,87,89,-1,91,93,95,97,-1,99,101,103,105,107,109,111,113,115,117,-1,-1,-1,-1,-1,-1,-1,-1,-1,-1,-1,-1,-1,-1,-1,-1,-1,-1,-1,-1,-1,-1,-1,-1,-1,-1,-1,-1,-1,-1,-1,-1,-1,-1,-1,-1,-1,-1,-1,-1,-1,-1,-1,-1,-1,-1,-1,-1,-1,-1,-1,-1,-1,-1,-1,-1],"loss_changes":[2.0374128E3,8.382433E2,8.338125E2,2.251123E2,5.276484E2,1.520315E2,4.5329858E2,8.522119E1,1.2876593E2,1.1757153E2,3.5976318E2,1.1212036E2,2.2587369E2,6.7978174E2,3.951728E2,7.6802E1,3.66886E1,8.7359314E1,6.734488E1,1.8347748E2,3.8769653E1,4.1123712E2,1.0618512E2,4.634204E1,6.1657036E1,3.4757294E1,1.6024998E2,4.9682166E2,6.201828E2,1.6733646E2,2.820288E2,2.0072754E1,6.75379E1,0E0,3.2079323E1,7.7011185E1,3.2738205E1,7.5226135E1,5.615279E1,8.401138E1,1.5924829E2,2.715625E1,0E0,4.575586E1,4.0604922E2,1.169164E2,1.06207886E2,0E0,2.29104E1,5.915097E1,4.4098995E1,2.351474E1,0E0,8.008124E1,6.1467E1,2.1523773E2,8.765154E2,7.7688257E2,2.9216476E2,1.4878317E2,7.201282E1,3.330787E2,1.2400998E2,0E0,0E0,0E0,0E0,0E0,0E0,0E0,0E0,0E0,0E0,0E0,0E0,0E0,0E0,0E0,0E0,0E0,0E0,0E0,0E0,0E0,0E0,0E0,0E0,0E0,0E0,0E0,0E0,0E0,0E0,0E0,0E0,0E0,0E0,0E0,0E0,0E0,0E0,0E0,0E0,0E0,0E0,0E0,0E0,0E0,0E0,0E0,0E0,0E0,0E0,0E0,0E0,0E0,0E0,0E0,0E0],"parents":[2147483647,0,0,1,1,2,2,3,3,4,4,5,5,6,6,7,7,8,8,9,9,10,10,11,11,12,12,13,13,14,14,15,15,16,16,17,17,18,18,19,19,20,20,21,21,22,22,23,23,24,24,25,25,26,26,27,27,28,28,29,29,30,30,31,31,32,32,34,34,35,35,36,36,37,37,38,38,39,39,40,40,41,41,43,43,44,44,45,45,46,46,48,48,49,49,50,50,51,51,53,53,54,54,55,55,56,56,57,57,58,58,59,59,60,60,61,61,62,62],"right_children":[2,4,6,8,10,12,14,16,18,20,22,24,26,28,30,32,34,36,38,40,42,44,46,48,50,52,54,56,58,60,62,64,66,-1,68,70,72,74,76,78,80,82,-1,84,86,88,90,-1,92,94,96,98,-1,100,102,104,106,108,110,112,114,116,118,-1,-1,-1,-1,-1,-1,-1,-1,-1,-1,-1,-1,-1,-1,-1,-1,-1,-1,-1,-1,-1,-1,-1,-1,-1,-1,-1,-1,-1,-1,-1,-1,-1,-1,-1,-1,-1,-1,-1,-1,-1,-1,-1,-1,-1,-1,-1,-1,-1,-1,-1,-1,-1,-1,-1,-1],"split_conditions":[8.318587E-2,-7.2312045E-1,-6.34078E-1,6.175497E-1,-5.371392E-1,8.9646196E-1,9.8735857E-1,1.1467388E0,-8.6978096E-1,1.2258422E0,1.5137568E0,5.107931E-1,-1.9327837E-1,4.386921E-1,7.011061E-2,-5.181798E-1,-8.9912605E-1,-8.190118E-1,-7.557684E-1,5.271566E-1,1.0238636E0,-1.137878E0,-3.922859E-1,-2.4059393E-1,1.8704844E0,1.2991238E0,2.6784956E-1,-6.623645E-1,6.0347205E-1,-6.5637136E-1,1.7426417E0,-1.2528324E0,-9.04358E-1,-4.337204E-1,4.7739148E-1,-1.6846765E0,-1.7003199E0,-1.1182165E0,-7.6355827E-1,9.730259E-1,-1.5389723E-1,5.8223E-1,3.5565028E-1,-7.617284E-1,1.85788E-1,1.2954187E0,1.6505361E0,-4.0993673E-1,-4.0051024E-3,2.2058505E-1,-6.755089E-1,6.3184035E-1,-5.130426E-1,-1.0419265E0,-8.12691E-1,-9.762864E-1,8.6560273E-1,1.1371682E0,-3.1402466E-1,-3.6546832E-1,-7.125755E-2,-3.930658E-1,3.9002898E-1,-2.2233719E-1,-3.3136678E-1,-2.9840118E-1,-1.3117951E-1,2.0101231E-1,-4.0512076E-1,3.995748E-2,-1.6859576E-1,-1.9400077E-3,4.267462E-1,-8.1838E-2,-2.920079E-1,4.9862343E-1,-1.08856015E-1,2.707647E-1,-4.655478E-2,-1.3831803E-1,-4.315514E-1,-3.9980912E-1,9.3371177E-4,-6.007638E-1,2.9970208E-1,-1.6507915E-1,4.9043152E-2,-1.1782682E-1,3.0744007E-1,-7.3612E-2,-3.4521228E-1,3.1999558E-1,2.4444847E-1,1.9296125E-2,2.3538785E-1,-5.888198E-1,1.5942468E-1,-5.6858927E-1,2.5551325E-1,9.8969415E-2,-5.2994835E-1,-7.3952806E-1,6.393992E-2,1.2610942E-1,-3.070436E-2,2.7673528E-1,4.31803E-2,2.2642781E-1,-9.738936E-2,-1.8302926E-1,3.915071E-3,4.74992E-1,-1.5003131E-1,-1.8724963E-1,-4.1357705E-1,1.3787806E-1,-4.877956E-2,-1.2918438E-1,-5.375001E-1],"split_indices":[2,5,1,8,8,5,2,1,3,5,8,4,4,4,8,7,4,5,4,4,4,4,5,5,0,2,8,5,5,4,2,3,1,0,6,2,2,0,7,5,2,0,0,2,5,6,8,0,4,3,1,2,0,6,6,3,5,4,8,8,8,3,6,0,0,0,0,0,0,0,0,0,0,0,0,0,0,0,0,0,0,0,0,0,0,0,0,0,0,0,0,0,0,0,0,0,0,0,0,0,0,0,0,0,0,0,0,0,0,0,0,0,0,0,0,0,0,0,0],"split_type":[0,0,0,0,0,0,0,0,0,0,0,0,0,0,0,0,0,0,0,0,0,0,0,0,0,0,0,0,0,0,0,0,0,0,0,0,0,0,0,0,0,0,0,0,0,0,0,0,0,0,0,0,0,0,0,0,0,0,0,0,0,0,0,0,0,0,0,0,0,0,0,0,0,0,0,0,0,0,0,0,0,0,0,0,0,0,0,0,0,0,0,0,0,0,0,0,0,0,0,0,0,0,0,0,0,0,0,0,0,0,0,0,0,0,0,0,0,0,0],"sum_hessian":[3.7209383E4,1.3436456E4,2.3772928E4,3.942288E3,9.494168E3,2.9641692E3,2.0808758E4,2.454508E3,1.4877802E3,2.997258E3,6.49691E3,2.059345E3,9.0482416E2,1.528266E4,5.5260986E3,2.3750103E3,7.949776E1,7.080568E2,7.7972327E2,2.7587927E3,2.3846518E2,5.4859976E3,1.0109125E3,1.5587301E3,5.0061493E2,4.7021906E2,4.3460513E2,9.387775E3,5.894885E3,1.4236025E3,4.102496E3,1.491265E3,8.8374524E2,1.1547169E1,6.795059E1,6.363759E2,7.16809E1,7.215246E2,5.8198677E1,3.0738712E2,2.4514058E3,2.3243114E2,6.0340395E0,5.018804E2,4.984117E3,4.453136E2,5.655988E2,7.7499204E0,1.5509802E3,4.7235272E2,2.8262215E1,4.6568634E2,4.5327034E0,1.01463066E2,3.3314206E2,3.6016409E3,5.786135E3,2.7013962E3,3.1934885E3,1.3635568E2,1.2872468E3,3.455052E3,6.4744385E2,1.8188135E2,1.3093837E3,3.9437674E2,4.893685E2,5.9872845E1,8.077747E0,3.281123E2,3.082636E2,2.3859823E1,4.782108E1,2.2245816E2,4.9906644E2,2.016905E1,3.8029625E1,1.2770439E2,1.7968271E2,2.2721875E3,1.7921815E2,2.1606989E2,1.6361246E1,4.237335E0,4.9764307E2,9.9504706E2,3.9890703E3,3.7754248E2,6.7771126E1,2.0206372E2,3.6353513E2,9.138722E2,6.3710803E2,1.9199347E2,2.8035925E2,1.7240662E1,1.1021553E1,2.2305708E0,4.6345578E2,2.3303331E1,7.815974E1,7.8034387E0,3.2533862E2,1.1623035E3,2.4393374E3,2.939245E3,2.8468896E3,1.5064989E3,1.1948973E3,1.9806323E3,1.2128562E3,6.212566E1,7.423003E1,1.144902E3,1.4234485E2,1.6125236E3,1.8425286E3,5.7241095E2,7.5032936E1],"tree_param":{"num_deleted":"0","num_feature":"9","num_nodes":"119","size_leaf_vector":"0"}},{"base_weights":[-2.2993528E-3,-2.73677E-1,1.204969E-1,-6.1431986E-1,-1.2967089E-1,1.5754597E-1,-3.860552E-1,-8.070538E-1,-3.2539737E-1,1.0329292E-1,-3.2974112E-1,2.6007387E-1,-3.2252222E-2,-2.2354929E-1,-1.0797495E0,-9.6704143E-1,-5.5614495E-1,5.056459E0,-3.4000656E-1,5.018985E-1,-1.2670095E-1,-1.3000911E-1,-5.5043477E-1,5.4794985E-1,1.8192025E-2,5.2529734E-1,-7.854403E-2,-1.0248192E-1,-1.3171118E0,-2.551128E-1,-1.5339652E0,-3.258815E-1,-9.952437E-1,-2.1757758E-1,-8.1855035E-1,1.3501517E-1,-4.748968E-1,6.73704E-1,-8.3999157E-1,-5.941406E-1,1.4686301E-1,2.1721111E-1,-5.167626E-1,-4.7184122E-1,-1.4116741E0,3.7623014E-2,6.7529845E-1,2.5476345E-1,-2.3222552E-1,-1.9056016E-1,7.8146726E-1,-2.4906166E-2,-6.248277E-1,8.810548E-2,-8.651425E-1,1.9732524E0,-1.4654934E0,-9.377267E-1,9.3283767E-1,-8.7336516E-1,-1.6380581E0,-1.1396327E0,2.5387542E0,-1.0242459E0,-5.8419424E-1,-8.939511E-1,4.7043455E-1,-9.580035E-1,6.29262E-1,-1.117721E0,4.0876073E-1,-1.325202E-1,-8.04911E-1,9.548339E-1,4.588532E-1,1.2675899E0,-1.1901414E0,-3.0438137E-1,-1.5065637E0,5.8901095E-1,-2.2863528E-1,-2.700659E-2,7.672319E-1,-8.0227786E-1,-1.7527461E-1,-2.9195288E-1,-9.0584576E-1,-5.199072E-1,-1.8096418E0,-3.8072744E-1,4.1893902E-1,9.380955E-1,4.283025E-1,6.764054E-1,-7.0536464E-2,-5.1177245E-1,1.3674575E-1,-9.39028E-1,2.0221214E-1,8.574859E-1,-9.6291155E-1,4.003567E-3,-8.121178E-1,-3.6892933E-1,-1.1272662E0,-2.3057094E-1,7.48178E-1,-1.2261593E0,1.6034202E-1,-1.1447829E0,-1.5156595E0,-1.8266004E0,1.36445165E-2,1.3552781E0,-1.3273065E0,-1.2596892E0,1.1324939E0,-7.806007E-1,-1.7507435E0],"categories":[],"categories_nodes":[],"categories_segments":[],"categories_sizes":[],"default_left":[true,true,true,true,true,true,true,true,true,true,true,true,true,true,true,true,true,false,true,true,true,true,true,true,true,true,true,true,true,true,true,true,true,true,true,true,true,true,true,true,true,true,true,true,true,true,true,true,true,true,true,true,true,true,true,false,true,true,true,true,true,false,false,false,false,false,false,false,false,false,false,false,false,false,false,false,false,false,false,false,false,false,false,false,false,false,false,false,false,false,false,false,false,false,false,false,false,false,false,false,false,false,false,false,false,false,false,false,false,false,false,false,false,false,false,false,false,false,false],"id":5,"left_children":[1,3,5,7,9,11,13,15,17,19,21,23,25,27,29,31,33,-1,35,37,39,41,43,45,47,49,51,53,55,57,59,61,63,65,67,69,71,73,75,77,79,81,83,85,87,89,91,93,95,97,99,101,103,105,107,-1,109,111,113,115,117,-1,-1,-1,-1,-1,-1,-1,-1,-1,-1,-1,-1,-1,-1,-1,-1,-1,-1,-1,-1,-1,-1,-1,-1,-1,-1,-1,-1,-1,-1,-1,-1,-1,-1,-1,-1,-1,-1,-1,-1,-1,-1,-1,-1,-1,-1,-1,-1,-1,-1,-1,-1,-1,-1,-1,-1,-1,-1],"loss_changes":[1.1721099E3,5.374303E2,4.5452228E2,1.810232E2,3.590558E2,4.391324E2,1.8584132E2,7.782678E1,1.04275314E2,3.2639798E2,1.8260324E2,1.02019965E3,2.0433917E2,1.7709682E2,1.1686206E2,2.120642E1,6.755989E1,0E0,8.34769E1,3.008738E2,2.8882965E2,2.9242142E2,1.325763E2,4.3473193E2,4.717878E2,1.1145154E2,2.1416412E2,1.7541849E2,6.799516E1,9.200782E1,1.2436066E1,1.2330723E2,1.2992554E1,1.5597708E2,8.7255005E1,9.945606E1,1.1447539E2,6.934393E1,1.1094327E2,2.1998703E2,2.367546E2,1.5418355E2,1.00287964E2,1.4068497E2,5.7301697E1,2.1344844E2,3.4710132E2,5.617279E2,3.9910806E2,4.7449657E1,6.0125E1,1.515044E2,8.3605225E1,2.0337842E2,8.9521454E1,0E0,3.269348E-1,6.0802345E1,4.1434258E1,2.435811E1,1.5355408E1,0E0,0E0,0E0,0E0,0E0,0E0,0E0,0E0,0E0,0E0,0E0,0E0,0E0,0E0,0E0,0E0,0E0,0E0,0E0,0E0,0E0,0E0,0E0,0E0,0E0,0E0,0E0,0E0,0E0,0E0,0E0,0E0,0E0,0E0,0E0,0E0,0E0,0E0,0E0,0E0,0E0,0E0,0E0,0E0,0E0,0E0,0E0,0E0,0E0,0E0,0E0,0E0,0E0,0E0,0E0,0E0,0E0,0E0],"parents":[2147483647,0,0,1,1,2,2,3,3,4,4,5,5,6,6,7,7,8,8,9,9,10,10,11,11,12,12,13,13,14,14,15,15,16,16,18,18,19,19,20,20,21,21,22,22,23,23,24,24,25,25,26,26,27,27,28,28,29,29,30,30,31,31,32,32,33,33,34,34,35,35,36,36,37,37,38,38,39,39,40,40,41,41,42,42,43,43,44,44,45,45,46,46,47,47,48,48,49,49,50,50,51,51,52,52,53,53,54,54,56,56,57,57,58,58,59,59,60,60],"right_children":[2,4,6,8,10,12,14,16,18,20,22,24,26,28,30,32,34,-1,36,38,40,42,44,46,48,50,52,54,56,58,60,62,64,66,68,70,72,74,76,78,80,82,84,86,88,90,92,94,96,98,100,102,104,106,108,-1,110,112,114,116,118,-1,-1,-1,-1,-1,-1,-1,-1,-1,-1,-1,-1,-1,-1,-1,-1,-1,-1,-1,-1,-1,-1,-1,-1,-1,-1,-1,-1,-1,-1,-1,-1,-1,-1,-1,-1,-1,-1,-1,-1,-1,-1,-1,-1,-1,-1,-1,-1,-1,-1,-1,-1,-1,-1,-1,-1,-1,-1],"split_conditions":[-1.1211501E-1,-7.2312045E-1,1.4413972E0,6.2518597E-1,5.8980966E-1,9.0375674E-1,4.0748477E-1,-5.181798E-1,6.251985E-1,-5.31444E-1,-7.554127E-1,2.0369285E-1,-1.376976E0,4.780722E-1,1.5392541E0,-1.533005E0,-1.4320409E-2,1.5169377E0,-1.2807689E0,1.5725598E0,-3.1084323E-1,1.3790125E0,7.704412E-1,-1.8380273E-2,7.043556E-1,-1.1378359E0,1.7303307E0,1.1824086E0,-1.8685744E0,9.692353E-1,-4.1409582E-1,7.8007674E-1,5.438858E-1,-6.149907E-1,8.7838066E-1,-1.780066E0,-1.6849617E0,-5.118116E-1,-1.3371642E0,-8.258682E-1,9.2843264E-1,7.498119E-1,-1.1243212E0,4.8933128E-1,-6.0589147E-1,8.493116E-1,8.9800984E-1,8.3614945E-1,3.288971E-2,1.9983094E0,-7.3109925E-1,1.8081241E0,-3.05824E-1,9.9648386E-1,1.8840423E0,5.9197575E-1,-2.4510713E-1,8.3210635E-1,2.1159687E0,-4.1715384E-1,3.2717735E-1,-3.4188983E-1,7.616263E-1,-3.0727378E-1,-1.7525828E-1,-2.6818535E-1,1.4113037E-1,-2.8740108E-1,1.887786E-1,-3.353163E-1,1.2262822E-1,-3.975606E-2,-2.4147332E-1,2.8645018E-1,1.3765596E-1,3.80277E-1,-3.5704243E-1,-9.131441E-2,-4.5196912E-1,1.7670329E-1,-6.859059E-2,-8.101977E-3,2.3016958E-1,-2.4068336E-1,-5.2582387E-2,-8.758587E-2,-2.7175373E-1,-1.5597215E-1,-5.428926E-1,-1.14218235E-1,1.2568171E-1,2.8142866E-1,1.2849076E-1,2.0292161E-1,-2.116094E-2,-1.5353175E-1,4.1023728E-2,-2.8170842E-1,6.0663644E-2,2.5724578E-1,-2.8887346E-1,1.2010701E-3,-2.4363536E-1,-1.106788E-1,-3.3817986E-1,-6.917129E-2,2.244534E-1,-3.678478E-1,4.810261E-2,-3.4343487E-1,-4.5469785E-1,-5.479801E-1,4.093355E-3,4.0658346E-1,-3.9819196E-1,-3.7790677E-1,3.3974817E-1,-2.3418023E-1,-5.252231E-1],"split_indices":[2,5,5,8,4,1,1,7,8,3,2,4,3,4,5,3,0,0,0,8,5,4,8,5,5,5,2,2,0,2,4,0,8,2,7,2,2,2,4,4,5,6,2,7,2,2,5,4,8,1,5,3,6,6,3,0,8,1,7,4,8,0,0,0,0,0,0,0,0,0,0,0,0,0,0,0,0,0,0,0,0,0,0,0,0,0,0,0,0,0,0,0,0,0,0,0,0,0,0,0,0,0,0,0,0,0,0,0,0,0,0,0,0,0,0,0,0,0,0],"split_type":[0,0,0,0,0,0,0,0,0,0,0,0,0,0,0,0,0,0,0,0,0,0,0,0,0,0,0,0,0,0,0,0,0,0,0,0,0,0,0,0,0,0,0,0,0,0,0,0,0,0,0,0,0,0,0,0,0,0,0,0,0,0,0,0,0,0,0,0,0,0,0,0,0,0,0,0,0,0,0,0,0,0,0,0,0,0,0,0,0,0,0,0,0,0,0,0,0,0,0,0,0,0,0,0,0,0,0,0,0,0,0,0,0,0,0,0,0,0,0],"sum_hessian":[3.517099E4,1.095637E4,2.421462E4,3.2545486E3,7.7018213E3,2.2564918E4,1.6497024E3,1.9511711E3,1.3033774E3,3.558616E3,4.143205E3,1.4650454E4,7.914463E3,1.3376619E3,3.1204056E2,1.1897158E3,7.614554E2,2.5941863E0,1.3007832E3,1.3016046E3,2.2570115E3,2.1757231E3,1.9674819E3,6.688666E3,7.9617886E3,6.0594684E2,7.308516E3,1.205316E3,1.323458E2,1.1138351E2,2.0065704E2,5.065542E1,1.1390604E3,3.3327628E2,4.281791E2,2.8768546E2,1.0130977E3,1.154313E3,1.4729163E2,8.3281165E2,1.4241998E3,1.1466869E3,1.0290361E3,1.8043696E3,1.6311232E2,1.3360358E3,5.3526304E3,4.0940706E3,3.867718E3,1.5975987E2,4.46187E2,6.6560273E3,6.5248865E2,9.650392E2,2.4027692E2,5.180034E0,1.27165764E2,7.087076E1,4.051275E1,2.8592438E1,1.720646E2,3.991813E1,1.0737288E1,1.0625958E3,7.6464485E1,1.6790868E2,1.6536761E2,3.9086896E2,3.7310165E1,5.1038048E1,2.3664742E2,4.9792355E2,5.151742E2,4.985378E2,6.557752E2,2.0611158E1,1.26680466E2,6.3309314E2,1.9971849E2,6.537926E2,7.7040717E2,7.947546E2,3.519324E2,5.5971436E2,4.693218E2,1.2768198E3,5.2754987E2,5.104252E1,1.1206981E2,6.370811E2,6.9895465E2,2.5920066E3,2.7606238E3,1.7825347E3,2.311536E3,2.200299E3,1.667419E3,5.450474E1,1.0525513E2,4.2804172E2,1.8145277E1,6.4212085E3,2.3481894E2,4.334575E2,2.1903117E2,6.5126544E2,3.1377377E2,1.7756895E2,6.2707966E1,2.0422796E1,1.0674297E2,3.6163208E1,3.4707546E1,3.4470306E1,6.042441E0,2.428684E1,4.3055964E0,2.0906672E1,1.5115793E2],"tree_param":{"num_deleted":"0","num_feature":"9","num_nodes":"119","size_leaf_vector":"0"}},{"base_weights":[-2.1459293E-3,-2.1359938E-1,9.10641E-2,-5.195804E-1,-9.8802865E-2,2.8801823E-1,3.138039E-2,-1.0039994E0,-4.0436727E-1,-3.1267384E-1,5.2641414E-2,-2.4732848E-1,3.4310198E-1,4.973127E-2,-7.459356E-1,-1.0407546E0,1.9113654E0,-1.4963143E-1,-7.436065E-1,-2.638786E-1,-1.0316994E0,1.4795825E-1,-3.917676E-1,3.972404E-1,-6.8553406E-1,7.155232E-1,1.7756951E-1,1.0949399E-1,-1.8489408E-1,8.750731E-1,-9.4836897E-1,-1.0745617E0,-6.055196E-1,3.161543E0,-7.913076E-1,7.389412E0,-1.6487096E-1,2.0717022E0,-8.375307E-1,-3.6859474E-1,1.888886E-1,-3.183299E-1,-1.3079972E0,3.4135425E-1,-1.2707472E-1,-4.4069573E-1,1.7111641E0,6.270785E-1,-9.8742217E-1,2.5928738E0,-8.0323756E-1,8.2039016E-1,3.0316785E-1,7.065268E-1,2.5390454E-2,-1.5161641E-1,1.9905552E-1,4.290188E-1,-3.80574E-1,1.269554E0,-1.6328611E0,-1.2104946E0,4.0789652E-1,-1.1120911E0,-7.7555656E-1,6.0117793E0,-1.1287268E0,-1.799927E-1,6.7974367E0,-1.091332E0,3.425408E0,-8.911308E-1,5.0382864E-1,-5.143075E-1,-3.827575E-2,1.0234289E0,2.0127803E-2,-9.1008395E-1,2.2244377E0,-1.2308793E0,-1.8973229E0,7.878531E-2,6.088086E-1,1.9646417E-1,-5.065982E-1,5.197386E-2,-6.678176E-1,1.0550493E0,1.9718258E0,7.7565485E-1,-1.3295847E0,1.0279121E0,-1.3839428E0,-1.3103999E0,1.5237132E-2,8.338898E-1,-1.2341974E0,9.928457E-1,8.477484E-2,8.6702466E-1,3.105763E-2,-3.6317626E-1,2.3107031E-1,-1.6345925E0,-1.3092472E-1,2.3549719E-1,-2.4458273E-1,7.7983195E-1,-4.6956744E-2,-6.92422E-1,-1.5861675E-1,-1.5052769E0,1.5848416E0,-1.4628836E0,-1.20122895E-1,8.660907E-1,-1.5509454E0],"categories":[],"categories_nodes":[],"categories_segments":[],"categories_sizes":[],"default_left":[true,true,true,true,true,true,true,true,true,true,true,true,true,true,true,true,true,true,true,true,true,true,true,true,true,true,true,true,true,true,true,true,true,false,false,false,true,true,true,true,true,true,true,true,true,true,true,true,true,false,true,true,true,true,true,true,true,true,true,true,false,true,true,false,false,false,false,false,false,false,false,false,false,false,false,false,false,false,false,false,false,false,false,false,false,false,false,false,false,false,false,false,false,false,false,false,false,false,false,false,false,false,false,false,false,false,false,false,false,false,false,false,false,false,false,false,false],"id":6,"left_children":[1,3,5,7,9,11,13,15,17,19,21,23,25,27,29,31,33,35,37,39,41,43,45,47,49,51,53,55,57,59,61,63,65,-1,-1,-1,67,69,71,73,75,77,79,81,83,85,87,89,91,-1,93,95,97,99,101,103,105,107,109,111,-1,113,115,-1,-1,-1,-1,-1,-1,-1,-1,-1,-1,-1,-1,-1,-1,-1,-1,-1,-1,-1,-1,-1,-1,-1,-1,-1,-1,-1,-1,-1,-1,-1,-1,-1,-1,-1,-1,-1,-1,-1,-1,-1,-1,-1,-1,-1,-1,-1,-1,-1,-1,-1,-1,-1,-1],"loss_changes":[6.6019965E2,3.599161E2,2.7327448E2,1.5562213E2,2.4142828E2,1.5951721E2,2.545552E2,5.9475403E1,1.9520291E2,1.08140594E2,1.8493184E2,1.4290524E2,3.0210388E2,2.4445291E2,1.3588881E2,7.154358E0,2.6261387E1,1.4966982E2,2.5797693E2,1.3732642E2,3.8221024E1,1.9122786E2,8.008782E1,6.586037E1,1.1822385E2,6.49704E1,2.7329266E2,3.249483E2,4.2533344E2,4.779272E1,1.3074225E2,4.6464233E0,1.4708842E2,0E0,0E0,0E0,1.3708728E2,1.3893048E2,6.792279E1,1.1316354E2,7.66579E1,8.636091E1,4.0717316E0,1.4817317E2,1.8240616E2,8.44377E1,9.5295715E-1,5.2321632E1,2.5054241E1,0E0,1.2094232E2,3.4363525E1,4.621338E1,8.2207794E1,2.108961E2,1.0869115E2,1.673194E2,1.4295514E2,1.8569104E2,3.781286E1,0E0,8.438733E1,5.527364E1,0E0,0E0,0E0,0E0,0E0,0E0,0E0,0E0,0E0,0E0,0E0,0E0,0E0,0E0,0E0,0E0,0E0,0E0,0E0,0E0,0E0,0E0,0E0,0E0,0E0,0E0,0E0,0E0,0E0,0E0,0E0,0E0,0E0,0E0,0E0,0E0,0E0,0E0,0E0,0E0,0E0,0E0,0E0,0E0,0E0,0E0,0E0,0E0,0E0,0E0,0E0,0E0,0E0,0E0],"parents":[2147483647,0,0,1,1,2,2,3,3,4,4,5,5,6,6,7,7,8,8,9,9,10,10,11,11,12,12,13,13,14,14,15,15,16,16,17,17,18,18,19,19,20,20,21,21,22,22,23,23,24,24,25,25,26,26,27,27,28,28,29,29,30,30,31,31,32,32,36,36,37,37,38,38,39,39,40,40,41,41,42,42,43,43,44,44,45,45,46,46,47,47,48,48,50,50,51,51,52,52,53,53,54,54,55,55,56,56,57,57,58,58,59,59,61,61,62,62],"right_children":[2,4,6,8,10,12,14,16,18,20,22,24,26,28,30,32,34,36,38,40,42,44,46,48,50,52,54,56,58,60,62,64,66,-1,-1,-1,68,70,72,74,76,78,80,82,84,86,88,90,92,-1,94,96,98,100,102,104,106,108,110,112,-1,114,116,-1,-1,-1,-1,-1,-1,-1,-1,-1,-1,-1,-1,-1,-1,-1,-1,-1,-1,-1,-1,-1,-1,-1,-1,-1,-1,-1,-1,-1,-1,-1,-1,-1,-1,-1,-1,-1,-1,-1,-1,-1,-1,-1,-1,-1,-1,-1,-1,-1,-1,-1,-1,-1,-1],"split_conditions":[-1.1211501E-1,-7.6526356E-1,-4.2513046E-1,-1.2075243E0,1.9441701E-2,-9.658158E-2,1.5948653E0,1.5033872E0,9.44805E-3,1.2258422E0,1.4455168E0,-1.1131711E0,-9.2196204E-2,1.066262E0,1.1204356E-1,-1.3640362E-1,1.507509E0,-1.2072537E0,-1.3531994E0,4.225409E-1,-7.0682037E-1,5.9021145E-1,1.4126077E0,-1.3330472E-1,-1.1943052E0,1.2669282E0,4.535275E-1,-9.864483E-1,-2.6450843E-1,2.2634628E0,-3.7893343E-1,-1.6215593E0,-1.3608909E-1,9.484629E-1,-2.3739229E-1,2.2168236E0,9.35147E-3,-1.3747469E0,8.7851876E-1,1.1510405E-1,-9.84151E-1,-7.190791E-1,-2.0975485E-1,-1.854034E-1,8.174248E-1,-4.5781457E-1,1.7699555E0,1.0736691E0,1.0258746E0,7.778622E-1,3.6121672E-1,1.7501341E0,-6.606492E-1,1.2500887E0,-6.219815E-1,-1.4901377E0,1.4985309E0,1.4141603E0,8.581288E-1,-2.2241184E-1,-4.8985836E-1,1.1257939E0,9.4716215E-1,-3.3362734E-1,-2.3266698E-1,1.8035339E0,-3.3861807E-1,-5.3997815E-2,2.039231E0,-3.273996E-1,1.0276225E0,-2.6733926E-1,1.511486E-1,-1.5429226E-1,-1.1482725E-2,3.0702868E-1,6.038341E-3,-2.7302518E-1,6.6733134E-1,-3.692638E-1,-5.691969E-1,2.3635594E-2,1.8264258E-1,5.8939252E-2,-1.5197946E-1,1.5592159E-2,-2.003453E-1,3.165148E-1,5.915478E-1,2.3269646E-1,-3.9887545E-1,3.0837366E-1,-4.1518286E-1,-3.9312E-1,4.57114E-3,2.5016695E-1,-3.7025923E-1,2.9785374E-1,2.5432453E-2,2.601074E-1,9.317289E-3,-1.0895288E-1,6.9321096E-2,-4.9037778E-1,-3.9277416E-2,7.064916E-2,-7.337482E-2,2.3394959E-1,-1.4087024E-2,-2.077266E-1,-4.758503E-2,-4.515831E-1,4.754525E-1,-4.388651E-1,-3.603687E-2,2.5982723E-1,-4.6528363E-1],"split_indices":[2,5,1,5,8,5,4,0,0,5,8,4,4,5,5,7,0,5,4,1,6,4,5,3,1,5,5,5,4,4,8,2,7,0,0,0,0,4,7,3,6,6,8,5,5,5,3,0,8,0,6,8,4,4,8,6,8,5,2,0,0,3,6,0,0,0,0,0,0,0,0,0,0,0,0,0,0,0,0,0,0,0,0,0,0,0,0,0,0,0,0,0,0,0,0,0,0,0,0,0,0,0,0,0,0,0,0,0,0,0,0,0,0,0,0,0,0],"split_type":[0,0,0,0,0,0,0,0,0,0,0,0,0,0,0,0,0,0,0,0,0,0,0,0,0,0,0,0,0,0,0,0,0,0,0,0,0,0,0,0,0,0,0,0,0,0,0,0,0,0,0,0,0,0,0,0,0,0,0,0,0,0,0,0,0,0,0,0,0,0,0,0,0,0,0,0,0,0,0,0,0,0,0,0,0,0,0,0,0,0,0,0,0,0,0,0,0,0,0,0,0,0,0,0,0,0,0,0,0,0,0,0,0,0,0,0,0],"sum_hessian":[3.349439E4,1.024702E4,2.324737E4,2.7946294E3,7.45239E3,5.40552E3,1.784185E4,5.354772E2,2.2591523E3,3.0890051E3,4.363385E3,5.0397812E2,4.901542E3,1.7431268E4,4.1058142E2,5.2944525E2,6.0319304E0,1.2911012E3,9.680511E2,2.893978E3,1.9502696E2,3.5933503E3,7.7003467E2,2.0400093E2,2.999772E2,1.5072196E3,3.3943223E3,1.389303E4,3.5382378E3,4.52127E1,3.653687E2,4.8992133E2,3.952394E1,4.0081115E0,2.023819E0,1.6284292E0,1.2894728E3,3.0573563E1,9.3747754E2,2.3505322E3,5.4344586E2,5.504896E1,1.39978E2,2.109655E3,1.4836953E3,7.532984E2,1.6736282E1,1.7542888E2,2.8572052E1,9.667882E0,2.9030933E2,1.2008414E3,3.0637814E2,7.575435E2,2.6367788E3,3.5480996E3,1.0344931E4,8.549097E2,2.6833281E3,3.94943E1,5.7183995E0,3.0628116E2,5.9087547E1,4.328707E2,5.705061E1,2.1273901E0,3.7396553E1,1.2876503E3,1.8225554E0,9.221249E0,2.1352314E1,9.017785E2,3.569903E1,1.6306505E3,7.1988165E2,9.055874E1,4.5288712E2,4.5177357E1,9.871606E0,1.26511566E2,1.3466427E1,1.0652034E3,1.0444515E3,8.011811E2,6.825143E2,2.3793791E2,5.153605E2,6.1936784E0,1.05426035E1,1.6360904E2,1.1819834E1,4.4355974E0,2.4136454E1,1.7887167E2,1.1143765E2,1.1935931E3,7.2483206E0,7.283175E1,2.3354639E2,6.118731E2,1.4567041E2,9.123734E2,1.7244054E3,4.775143E1,3.5003481E3,9.560106E3,7.8482434E2,4.917971E2,3.631126E2,1.1148517E3,1.5684764E3,3.6445432E0,3.5849754E1,2.4843433E2,5.7846844E1,4.833851E1,1.0749042E1],"tree_param":{"num_deleted":"0","num_feature":"9","num_nodes":"117","size_leaf_vector":"0"}},{"base_weights":[-2.8901743E-3,-1.6585904E-1,6.7220345E-2,-9.5558214E-1,-1.3009483E-1,-5.1068082E-2,1.5421773E-1,-9.9452347E-1,1.1727965E0,-9.8830014E-2,-8.520204E-1,2.224327E-1,-2.7160576E-1,-5.5757253E-3,2.9977193E-1,-1.030596E0,-5.774686E-1,1.8013716E0,-7.2277564E-1,-5.8650985E-2,-5.2447164E-1,-1.032104E0,-5.07734E-1,1.0448557E-2,5.860869E-1,2.8155425E-1,-3.7800372E-1,1.770444E-1,-2.8205308E-1,7.034942E-1,7.867836E-2,-1.0800306E0,-6.7475265E-1,1.9223361E0,-1.0791905E0,-2.562246E-1,1.3122061E-2,-9.619214E-1,-6.848881E-3,1.189289E0,-1.0778905E0,6.876676E-1,-9.782594E-1,1.725234E-1,-5.6213754E-1,6.754394E-1,-1.9847871E-1,7.151841E-1,-3.5976103E-1,-1.1053332E0,-3.1312788E-1,2.9789522E-1,-3.311997E-1,-2.5344536E-1,-1.2666545E0,7.870402E-1,-1.803552E-1,3.6689565E-1,-2.2121331E-1,8.459859E0,-1.1111441E0,4.207055E-2,-4.9421626E-1,9.282799E-2,-2.7325228E-1,6.662417E-4,-1.1612209E0,-6.234807E-1,5.56052E-1,-5.9002745E-1,-1.2704446E0,-1.2159541E0,1.5211035E0,4.041085E-1,-1.1336263E0,-1.6510867E-1,6.3284683E-1,1.0412636E-1,-8.36279E-1,-1.3310988E0,7.126795E-1,2.8576133E-1,-1.4396874E0,7.6017153E-1,-1.6202575E0,-7.737457E-1,3.7496006E-1,-1.4443566E0,3.5353497E-1,-1.0531937E0,-2.5895867E-1,3.3921087E-1,-1.019845E0,-1.0098137E-1,-7.9286814E-1,-1.8365333E0,-2.3761888E-1,-1.7760507E0,9.2575574E-1,7.9642195E-1,-9.244577E-1,4.3526393E-1,-1.2727515E0,5.266677E-1,-3.0934617E-1,-1.4160183E-2,-7.592327E-1],"categories":[],"categories_nodes":[],"categories_segments":[],"categories_sizes":[],"default_left":[true,true,true,true,true,true,true,true,true,true,true,true,true,true,true,true,true,false,false,true,true,true,true,true,true,true,true,true,true,true,true,false,true,false,false,true,true,true,true,false,true,true,true,true,true,true,true,true,true,true,true,true,true,true,true,true,true,true,true,false,false,false,false,false,false,false,false,false,false,false,false,false,false,false,false,false,false,false,false,false,false,false,false,false,false,false,false,false,false,false,false,false,false,false,false,false,false,false,false,false,false,false,false,false,false,false,false],"id":7,"left_children":[1,3,5,7,9,11,13,15,17,19,21,23,25,27,29,31,33,-1,-1,35,37,39,41,43,45,47,49,51,53,55,57,-1,59,-1,-1,61,63,65,67,-1,69,71,73,75,77,79,81,83,85,87,89,91,93,95,97,99,101,103,105,-1,-1,-1,-1,-1,-1,-1,-1,-1,-1,-1,-1,-1,-1,-1,-1,-1,-1,-1,-1,-1,-1,-1,-1,-1,-1,-1,-1,-1,-1,-1,-1,-1,-1,-1,-1,-1,-1,-1,-1,-1,-1,-1,-1,-1,-1,-1,-1],"loss_changes":[3.6696536E2,2.7273572E2,2.31101E2,3.5844116E1,2.0854898E2,5.741259E2,3.0096524E2,5.5944214E0,1.0806019E1,1.5150734E2,2.325705E1,3.275535E2,3.102331E2,3.1153534E2,6.043866E2,5.9100037E0,4.6005608E1,0E0,0E0,1.1483308E2,1.7302643E2,2.679773E1,7.5871735E1,2.493029E2,1.09828064E2,2.3680507E2,2.0820337E2,2.2833142E2,6.881195E1,1.770719E2,3.7836926E2,0E0,2.0352547E2,0E0,0E0,1.5321118E2,1.3563034E2,7.9452515E1,1.2218532E2,0E0,2.239038E1,6.2690674E1,2.1150955E1,3.2550732E2,1.08336044E2,1.0593512E2,9.7034615E1,5.458484E1,1.0486058E2,1.7932867E2,1.6245453E2,1.638139E2,7.583842E1,5.9352386E1,7.8758095E1,3.5889893E1,1.4026004E2,2.4133163E2,2.3899399E2,0E0,0E0,0E0,0E0,0E0,0E0,0E0,0E0,0E0,0E0,0E0,0E0,0E0,0E0,0E0,0E0,0E0,0E0,0E0,0E0,0E0,0E0,0E0,0E0,0E0,0E0,0E0,0E0,0E0,0E0,0E0,0E0,0E0,0E0,0E0,0E0,0E0,0E0,0E0,0E0,0E0,0E0,0E0,0E0,0E0,0E0,0E0,0E0],"parents":[2147483647,0,0,1,1,2,2,3,3,4,4,5,5,6,6,7,7,8,8,9,9,10,10,11,11,12,12,13,13,14,14,15,15,16,16,19,19,20,20,21,21,22,22,23,23,24,24,25,25,26,26,27,27,28,28,29,29,30,30,32,32,35,35,36,36,37,37,38,38,40,40,41,41,42,42,43,43,44,44,45,45,46,46,47,47,48,48,49,49,50,50,51,51,52,52,53,53,54,54,55,55,56,56,57,57,58,58],"right_children":[2,4,6,8,10,12,14,16,18,20,22,24,26,28,30,32,34,-1,-1,36,38,40,42,44,46,48,50,52,54,56,58,-1,60,-1,-1,62,64,66,68,-1,70,72,74,76,78,80,82,84,86,88,90,92,94,96,98,100,102,104,106,-1,-1,-1,-1,-1,-1,-1,-1,-1,-1,-1,-1,-1,-1,-1,-1,-1,-1,-1,-1,-1,-1,-1,-1,-1,-1,-1,-1,-1,-1,-1,-1,-1,-1,-1,-1,-1,-1,-1,-1,-1,-1,-1,-1,-1,-1,-1,-1],"split_conditions":[-1.1211501E-1,-1.2075243E0,-2.832123E-3,1.5033872E0,1.3934098E0,5.5503196E-1,2.0106113E-1,-1.3640362E-1,1.507509E0,1.6792526E0,2.1754258E0,4.0412548E-1,-2.7363777E-2,-4.4469953E-1,8.9787215E-1,-1.6215593E0,-1.3608909E-1,5.404115E-1,-2.168327E-1,-5.8316106E-1,-2.3331249E-1,-1.4562783E0,2.3124883E0,1.1412902E0,1.603212E0,1.2111235E0,-1.8245396E-1,2.570604E-1,1.7113967E0,1.008831E0,1.2557412E-2,-3.2400918E-1,-1.6214966E0,5.7670087E-1,-3.2375717E-1,-1.086257E0,5.894645E-1,-1.6535878E0,-4.5670938E-1,3.567867E-1,-5.1266146E-1,-3.153572E-1,-1.1445735E0,-7.272274E-1,-1.5570846E0,-1.3225193E0,4.061156E-1,1.0447556E0,2.8251132E-1,1.1677163E0,-4.6375072E-1,1.8785064E0,1.8300447E0,-1.4903753E0,1.8527448E0,1.4164388E0,7.3184454E-1,1.5905914E0,2.5020236E-1,2.5379577E0,-3.3334324E-1,1.2621165E-2,-1.4826488E-1,2.7848398E-2,-8.197568E-2,1.9987252E-4,-3.483663E-1,-1.870442E-1,1.6681561E-1,-1.7700824E-1,-3.811334E-1,-3.6478624E-1,4.5633107E-1,1.21232554E-1,-3.4008792E-1,-4.9532603E-2,1.8985406E-1,3.1237908E-2,-2.508837E-1,-3.9932966E-1,2.1380386E-1,8.57284E-2,-4.3190622E-1,2.2805147E-1,-4.8607728E-1,-2.3212372E-1,1.12488024E-1,-4.33307E-1,1.060605E-1,-3.159581E-1,-7.7687606E-2,1.0176326E-1,-3.059535E-1,-3.0294413E-2,-2.3786046E-1,-5.5096E-1,-7.1285665E-2,-5.328152E-1,2.7772674E-1,2.3892659E-1,-2.7733734E-1,1.3057919E-1,-3.8182545E-1,1.5800032E-1,-9.280385E-2,-4.248055E-3,-2.2776982E-1],"split_indices":[2,5,8,0,0,5,5,7,0,4,0,3,4,3,5,2,7,0,0,5,3,4,0,4,4,5,7,6,3,4,4,0,2,0,0,4,7,8,0,0,2,2,4,5,8,5,5,2,1,4,3,2,1,6,2,7,5,5,1,0,0,0,0,0,0,0,0,0,0,0,0,0,0,0,0,0,0,0,0,0,0,0,0,0,0,0,0,0,0,0,0,0,0,0,0,0,0,0,0,0,0,0,0,0,0,0,0],"split_type":[0,0,0,0,0,0,0,0,0,0,0,0,0,0,0,0,0,0,0,0,0,0,0,0,0,0,0,0,0,0,0,0,0,0,0,0,0,0,0,0,0,0,0,0,0,0,0,0,0,0,0,0,0,0,0,0,0,0,0,0,0,0,0,0,0,0,0,0,0,0,0,0,0,0,0,0,0,0,0,0,0,0,0,0,0,0,0,0,0,0,0,0,0,0,0,0,0,0,0,0,0,0,0,0,0,0,0],"sum_hessian":[3.211519E4,9.659872E3,2.2455318E4,4.173994E2,9.242473E3,9.516438E3,1.293888E4,4.1042294E2,6.9764643E0,8.859908E3,3.825638E2,4.2481133E3,5.268325E3,6.1682095E3,6.7706704E3,3.76396E2,3.4026955E1,5.276472E0,1.6999922E0,8.096743E3,7.6316547E2,2.4986877E2,1.3269504E2,2.6843564E3,1.5637571E3,8.4960535E2,4.41872E3,3.7148313E3,2.4533782E3,2.3950566E3,4.375614E3,3.2869745E2,4.7698544E1,5.2144976E0,2.8812456E1,2.1568616E3,5.9398813E3,4.131493E2,3.5001617E2,4.541815E0,2.4532697E2,3.734812E1,9.534692E1,2.0927004E3,5.91656E2,1.4039979E3,1.5975925E2,5.068082E2,3.4279712E2,3.605477E2,4.0581724E3,3.0015366E3,7.132946E2,2.3853296E3,6.804865E1,2.1883154E3,2.0674135E2,2.2311223E3,2.1444912E3,1.3365127E0,4.6362034E1,9.5753046E2,1.199331E3,4.6471313E3,1.2927499E3,7.103882E1,3.421105E2,1.6698463E2,1.8303154E2,7.057628E1,1.7475069E2,1.1232773E1,2.6115347E1,9.471738E0,8.5875175E1,1.207604E3,8.850964E2,1.7265689E2,4.1899915E2,2.4949425E1,1.3790485E3,1.1547721E2,4.4282032E1,4.9789185E2,8.91635E0,2.1922173E2,1.2357541E2,2.925683E2,6.79794E1,2.7552164E2,3.7826506E3,2.911009E3,9.052749E1,4.7676627E2,2.3652838E2,2.2471907E1,2.3628577E3,5.5372925E1,1.2675727E1,2.176917E3,1.1398364E1,1.326104E2,7.413095E1,1.8049076E3,4.262148E2,1.5492855E3,5.9520575E2],"tree_param":{"num_deleted":"0","num_feature":"9","num_nodes":"107","size_leaf_vector":"0"}},{"base_weights":[-1.7396058E-3,-3.8202932E-1,1.8718796E-2,-7.24786E-1,-1.5627415E-1,-7.65237E-2,9.057845E-2,8.260328E-1,-8.03789E-1,3.646069E-1,-3.3958268E-1,4.9523447E-2,-2.912593E-1,-3.6427878E-2,2.1960564E-1,-3.3666986E-1,4.0768623E0,-6.129732E-1,-1.1027195E0,7.8536004E-1,-1.0690387E0,1.4906883E-1,-5.9327704E-1,-8.271902E-2,3.2256803E-1,1.3840249E-1,-3.9077002E-1,1.2762213E-1,-2.5657466E-1,5.3798676E-1,4.543838E-2,2.1047025E0,-1.1173617E0,5.327866E0,2.6181026E0,-8.706169E-1,5.541838E-3,-1.2104673E0,-6.226641E-1,1.0043924E0,-1.4050809E0,-1.3405129E0,7.8018194E-1,-1.3017569E0,3.708435E-1,-3.134154E-1,-1.2903429E0,6.090625E-2,-2.7366972E-1,5.4335976E-1,1.08572155E-1,5.6859744E-1,-3.295434E-1,-5.7136285E-1,-1.6547735E-1,1.8944378E-1,-3.6420715E-1,2.1177437E0,-2.7283508E-1,7.56154E-1,-1.3616548E-2,7.2554964E-1,-1.1117969E-1,-9.465525E-1,2.4240887E0,8.23963E-1,-1.1739062E0,-1.1039377E0,-1.5144707E0,-9.780937E-1,9.084391E-1,-1.3712295E0,1.1986325E0,-1.1981387E0,-1.6682029E0,1.3991845E0,-8.456914E-1,1.5312104E0,1.4649872E-1,-1.1508334E0,4.936404E-2,-2.6126903E-1,4.7026014E-1,2.569592E0,-2.951278E-1,-1.8792701E-1,6.5065897E-1,-1.3457681E0,1.5359898E-1,2.2757903E-1,8.590345E-1,-4.9081728E-1,1.1681932E0,1.0693324E-1,-6.378999E-1,-5.714022E-2,-9.6365756E-1,1.1326734E0,1.5159874E-1,-2.5301063E-1,-1.9230118E0,-1.0867423E0,2.8153648E0,-8.7323993E-1,-2.2792317E-1,9.3548286E-1,6.397252E-1,3.5550112E-1,-6.366489E-1,8.1649894E-1,-9.891815E-1,-5.452457E-1,-2.0778954E-2],"categories":[],"categories_nodes":[],"categories_segments":[],"categories_sizes":[],"default_left":[true,true,true,true,true,true,true,true,true,true,true,true,true,true,true,true,true,true,true,true,true,true,true,true,true,true,true,true,true,true,true,false,false,false,false,true,true,true,true,true,false,true,true,false,true,true,false,true,true,true,true,true,true,true,true,true,true,true,true,true,true,true,true,false,false,false,false,false,false,false,false,false,false,false,false,false,false,false,false,false,false,false,false,false,false,false,false,false,false,false,false,false,false,false,false,false,false,false,false,false,false,false,false,false,false,false,false,false,false,false,false,false,false],"id":8,"left_children":[1,3,5,7,9,11,13,15,17,19,21,23,25,27,29,31,33,35,37,39,41,43,45,47,49,51,53,55,57,59,61,-1,-1,-1,-1,63,65,67,69,71,-1,73,75,-1,77,79,-1,81,83,85,87,89,91,93,95,97,99,101,103,105,107,109,111,-1,-1,-1,-1,-1,-1,-1,-1,-1,-1,-1,-1,-1,-1,-1,-1,-1,-1,-1,-1,-1,-1,-1,-1,-1,-1,-1,-1,-1,-1,-1,-1,-1,-1,-1,-1,-1,-1,-1,-1,-1,-1,-1,-1,-1,-1,-1,-1,-1,-1],"loss_changes":[2.4038533E2,1.2193887E2,2.0067667E2,7.737082E1,9.104629E1,3.413054E2,2.738709E2,1.17945206E2,3.3333862E1,1.5065497E2,8.747168E1,2.8694974E2,1.9946698E2,3.04222E2,4.5967758E2,4.740904E1,1.0175018E0,5.8358368E1,1.1197601E1,9.3810295E1,2.954818E1,7.824847E1,9.015137E1,1.4685803E2,1.22456665E2,1.7689517E2,1.5399164E2,1.4683618E2,1.3944121E2,3.527732E2,5.7099554E2,0E0,0E0,0E0,0E0,6.696973E1,1.05868126E2,4.404999E0,2.5058163E1,8.270195E1,0E0,3.2819366E-1,9.134083E0,0E0,5.4553497E1,1.0108066E2,0E0,4.03239E2,1.4099924E2,1.0024457E2,8.651617E1,4.513852E1,1.02284515E2,9.492279E1,1.4577736E2,1.5291774E2,9.299742E1,5.80067E1,9.615436E1,4.3259277E1,1.9151244E2,1.572879E2,1.7097394E2,0E0,0E0,0E0,0E0,0E0,0E0,0E0,0E0,0E0,0E0,0E0,0E0,0E0,0E0,0E0,0E0,0E0,0E0,0E0,0E0,0E0,0E0,0E0,0E0,0E0,0E0,0E0,0E0,0E0,0E0,0E0,0E0,0E0,0E0,0E0,0E0,0E0,0E0,0E0,0E0,0E0,0E0,0E0,0E0,0E0,0E0,0E0,0E0,0E0,0E0],"parents":[2147483647,0,0,1,1,2,2,3,3,4,4,5,5,6,6,7,7,8,8,9,9,10,10,11,11,12,12,13,13,14,14,15,15,16,16,17,17,18,18,19,19,20,20,21,21,22,22,23,23,24,24,25,25,26,26,27,27,28,28,29,29,30,30,35,35,36,36,37,37,38,38,39,39,41,41,42,42,44,44,45,45,47,47,48,48,49,49,50,50,51,51,52,52,53,53,54,54,55,55,56,56,57,57,58,58,59,59,60,60,61,61,62,62],"right_children":[2,4,6,8,10,12,14,16,18,20,22,24,26,28,30,32,34,36,38,40,42,44,46,48,50,52,54,56,58,60,62,-1,-1,-1,-1,64,66,68,70,72,-1,74,76,-1,78,80,-1,82,84,86,88,90,92,94,96,98,100,102,104,106,108,110,112,-1,-1,-1,-1,-1,-1,-1,-1,-1,-1,-1,-1,-1,-1,-1,-1,-1,-1,-1,-1,-1,-1,-1,-1,-1,-1,-1,-1,-1,-1,-1,-1,-1,-1,-1,-1,-1,-1,-1,-1,-1,-1,-1,-1,-1,-1,-1,-1,-1,-1],"split_conditions":[-1.4249189E0,6.492369E-1,6.279822E-2,-1.666081E0,1.0205652E0,6.959489E-1,2.6051363E-1,-1.6774747E0,-1.8813664E-1,-6.258353E-1,-1.2807689E0,4.0427405E-1,-1.8572025E-2,-4.4479883E-1,8.719614E-1,9.8505116E-1,-1.10101685E-1,2.0980662E-1,1.1527655E-1,9.113414E-1,-1.4921346E0,-1.780066E0,-1.6964331E0,9.0383923E-1,8.802638E-1,1.2147743E0,6.708716E-1,6.759311E-1,7.210052E-2,8.885615E-1,-3.8707948E-1,6.314108E-1,-3.352085E-1,1.59836E0,7.854308E-1,4.7869933E-1,1.4234209E0,5.375623E-1,3.0412912E-1,-1.3040624E0,-4.215243E-1,6.1336386E-1,-1.483166E0,-3.9052707E-1,-1.7370558E0,-1.082895E0,-3.871029E-1,-2.1961576E-1,-1.3961866E0,-3.8292015E-1,-9.3726885E-1,-5.546826E-1,-3.557012E-2,-1.607016E0,1.148092E0,-1.3235774E0,1.5927968E0,1.7207438E0,-5.239425E-1,6.896434E-1,5.3695E-1,1.6529918E0,-8.8269925E-1,-2.8396577E-1,7.272266E-1,2.4718891E-1,-3.5217187E-1,-3.3118135E-1,-4.5434123E-1,-2.9342812E-1,2.7253175E-1,-4.1136888E-1,3.5958976E-1,-3.5944164E-1,-5.0046086E-1,4.1975537E-1,-2.5370744E-1,4.5936313E-1,4.394962E-2,-3.4525E-1,1.4809213E-2,-7.838071E-2,1.4107805E-1,7.7087766E-1,-8.853835E-2,-5.6378104E-2,1.951977E-1,-4.0373045E-1,4.6079695E-2,6.827371E-2,2.5771037E-1,-1.4724518E-1,3.5045797E-1,3.2079976E-2,-1.9136997E-1,-1.7142067E-2,-2.8909728E-1,3.3980203E-1,4.547962E-2,-7.590319E-2,-5.769036E-1,-3.2602268E-1,8.446095E-1,-2.6197198E-1,-6.837695E-2,2.8064486E-1,1.9191757E-1,1.0665034E-1,-1.9099468E-1,2.4494968E-1,-2.9675448E-1,-1.6357371E-1,-6.2336866E-3],"split_indices":[2,8,8,8,8,5,5,8,6,3,0,3,4,3,5,4,1,7,3,4,2,2,2,4,4,5,2,6,8,4,4,0,0,0,0,1,4,5,1,0,0,5,2,0,2,7,0,5,2,5,2,8,4,8,6,5,2,1,2,5,8,5,0,0,0,0,0,0,0,0,0,0,0,0,0,0,0,0,0,0,0,0,0,0,0,0,0,0,0,0,0,0,0,0,0,0,0,0,0,0,0,0,0,0,0,0,0,0,0,0,0,0,0],"split_type":[0,0,0,0,0,0,0,0,0,0,0,0,0,0,0,0,0,0,0,0,0,0,0,0,0,0,0,0,0,0,0,0,0,0,0,0,0,0,0,0,0,0,0,0,0,0,0,0,0,0,0,0,0,0,0,0,0,0,0,0,0,0,0,0,0,0,0,0,0,0,0,0,0,0,0,0,0,0,0,0,0,0,0,0,0,0,0,0,0,0,0,0,0,0,0,0,0,0,0,0,0,0,0,0,0,0,0,0,0,0,0,0,0],"sum_hessian":[3.0895465E4,1.5763274E3,2.9319137E4,6.250794E2,9.512479E2,1.2608206E4,1.671093E4,2.9841383E1,5.9523804E2,2.4736317E2,7.0388477E2,7.945226E3,4.6629805E3,8.421776E3,8.289154E3,2.2640234E1,7.201148E0,3.6518237E2,2.3005565E2,1.9158739E2,5.577579E1,2.4069133E2,4.6319345E2,5.353221E3,2.592005E3,8.7679846E2,3.786182E3,4.8259634E3,3.5958132E3,2.9303425E3,5.3588115E3,5.074708E0,1.7565527E1,2.4487886E0,4.7523594E0,2.5750894E2,1.0767344E2,1.8664247E2,4.3413174E1,1.7466345E2,1.6923937E1,4.88757E1,6.900087E0,3.1268234E1,2.094231E2,3.315362E2,1.3165724E2,3.055603E3,2.2976182E3,1.2749879E3,1.317017E3,4.567141E2,4.2008435E2,2.1007227E3,1.6854591E3,4.287634E3,5.383295E2,2.357916E1,3.572234E3,2.0995635E3,8.307791E2,1.00237646E3,4.356435E3,2.5240428E2,5.1046505E0,6.3743267E1,4.3930172E1,1.4163998E2,4.500249E1,3.552711E1,7.886063E0,1.2743744E1,1.6191971E2,3.731811E1,1.1557592E1,5.098436E0,1.8016509E0,3.2986008E1,1.7643709E2,9.955567E1,2.3198053E2,1.7100769E3,1.3455262E3,1.6320744E1,2.2812974E3,1.630418E2,1.1119462E3,3.8683224E1,1.2783337E3,2.1088539E2,2.4582872E2,3.798545E2,4.022983E1,1.8760645E2,1.9131162E3,1.4849749E3,2.004843E2,1.6427989E2,4.123354E3,5.0356992E2,3.475959E1,4.1157756E0,1.9463385E1,2.4733195E2,3.324902E3,8.2375073E2,1.2758126E3,5.219672E2,3.088119E2,9.523858E2,4.9990696E1,7.5003815E2,3.606397E3],"tree_param":{"num_deleted":"0","num_feature":"9","num_nodes":"113","size_leaf_vector":"0"}},{"base_weights":[-1.0452209E-3,1.2906308E-2,-3.992755E-1,5.352005E-1,-1.0138968E-3,-1.525448E-1,-8.811062E-1,7.086356E-1,3.1002978E-2,-3.390766E-1,1.491281E-2,-5.5461943E-1,3.940644E-1,-1.0666965E0,4.1296417E-1,-3.06616E-1,8.120634E-1,-1.0828848E-1,2.0660758E0,-4.5929277E-1,3.1160578E-1,2.3347018E-2,-5.8454025E-1,-8.19891E-1,4.24376E-1,6.002539E-1,-1.2814857E0,-1.1810683E0,-2.0614639E-1,-1.2615386E0,1.2393556E0,5.502868E-1,-1.3091797E0,1.6334522E0,6.998537E-1,-2.590986E-1,2.0025847E0,3.6237924E0,-1.4199927E0,-5.939049E-1,-3.294005E-2,8.17645E-1,-6.253051E-1,3.1504862E-2,-6.089817E-1,-1.6766361E0,-3.0850083E-1,-9.6014345E-1,7.7950466E-1,-1.1552618E0,9.7572637E-1,1.0444633E0,-2.3119716E-1,-1.3011773E0,-6.217525E-1,-1.2031006E0,9.9835485E-1,-1.178266E0,1.8646675E0,9.0205014E-1,-1.5679053E0,1.2757236E0,3.1212628E0,4.8172775E-1,1.1200107E0,1.6797785E-1,-9.730826E-1,2.5869417E0,-7.840499E-1,-1.0044092E0,-4.818553E-1,2.2021064E-1,-9.922623E-1,3.2800037E-1,1.6978312E0,7.0032376E-1,-1.1138945E0,-6.662136E-2,8.809526E-2,-1.2353132E0,-2.5875053E-1,4.1565472E-1,-1.7637335E0,-1.9750176E-1,-1.6386044E0,4.0855248E-2,-1.2123928E0,-4.3349156E-1,2.2576551E0,1.3463861E0,-1.3081793E0,2.0329754E0,2.3815624E-1,4.3708234E0,-4.4499063E-1,-1.2169696E0,-1.5472548E0,-1.3156189E0,8.088484E-1,2.0154788E0,-1.1545297E0,-9.6353275E-1,2.1231747E0],"categories":[],"categories_nodes":[],"categories_segments":[],"categories_sizes":[],"default_left":[true,true,true,true,true,true,true,true,true,true,true,true,true,true,true,true,true,true,true,true,true,true,true,true,true,true,false,true,true,false,true,true,false,true,true,true,true,false,false,true,true,true,true,true,true,true,true,true,true,false,true,true,true,true,true,false,true,false,true,false,false,false,false,false,false,false,false,false,false,false,false,false,false,false,false,false,false,false,false,false,false,false,false,false,false,false,false,false,false,false,false,false,false,false,false,false,false,false,false,false,false,false,false],"id":9,"left_children":[1,3,5,7,9,11,13,15,17,19,21,23,25,27,29,31,33,35,37,39,41,43,45,47,49,51,-1,53,55,-1,57,59,-1,61,63,65,67,-1,-1,69,71,73,75,77,79,81,83,85,87,-1,89,91,93,95,97,-1,99,-1,101,-1,-1,-1,-1,-1,-1,-1,-1,-1,-1,-1,-1,-1,-1,-1,-1,-1,-1,-1,-1,-1,-1,-1,-1,-1,-1,-1,-1,-1,-1,-1,-1,-1,-1,-1,-1,-1,-1,-1,-1,-1,-1,-1,-1],"loss_changes":[1.6559947E2,2.0936852E2,1.1980266E2,6.535057E1,1.5103561E2,1.4712274E2,8.2445435E1,5.8652496E1,5.475833E1,9.8867355E1,1.3545885E2,1.0047363E2,9.8843445E1,2.917517E1,6.1825165E1,4.5521763E1,4.5405914E1,5.814159E1,7.2340546E1,6.1142456E1,9.410627E1,1.3629865E2,1.1154573E2,6.887172E1,7.328849E1,9.385138E1,0E0,1.6901001E1,4.476336E1,0E0,4.7040024E1,2.2889067E1,0E0,2.7926682E1,4.0343796E1,5.1947483E1,2.1869167E1,0E0,0E0,3.676877E1,6.2579765E1,5.4872284E1,4.598745E1,1.4484592E2,7.350477E1,1.4359833E1,4.3666656E1,7.0662415E1,4.586745E1,0E0,5.4213737E1,1.3132867E2,8.958518E1,2.5951233E0,4.9226162E1,0E0,3.9497543E1,0E0,1.9558937E1,0E0,0E0,0E0,0E0,0E0,0E0,0E0,0E0,0E0,0E0,0E0,0E0,0E0,0E0,0E0,0E0,0E0,0E0,0E0,0E0,0E0,0E0,0E0,0E0,0E0,0E0,0E0,0E0,0E0,0E0,0E0,0E0,0E0,0E0,0E0,0E0,0E0,0E0,0E0,0E0,0E0,0E0,0E0,0E0],"parents":[2147483647,0,0,1,1,2,2,3,3,4,4,5,5,6,6,7,7,8,8,9,9,10,10,11,11,12,12,13,13,14,14,15,15,16,16,17,17,18,18,19,19,20,20,21,21,22,22,23,23,24,24,25,25,27,27,28,28,30,30,31,31,33,33,34,34,35,35,36,36,39,39,40,40,41,41,42,42,43,43,44,44,45,45,46,46,47,47,48,48,50,50,51,51,52,52,53,53,54,54,56,56,58,58],"right_children":[2,4,6,8,10,12,14,16,18,20,22,24,26,28,30,32,34,36,38,40,42,44,46,48,50,52,-1,54,56,-1,58,60,-1,62,64,66,68,-1,-1,70,72,74,76,78,80,82,84,86,88,-1,90,92,94,96,98,-1,100,-1,102,-1,-1,-1,-1,-1,-1,-1,-1,-1,-1,-1,-1,-1,-1,-1,-1,-1,-1,-1,-1,-1,-1,-1,-1,-1,-1,-1,-1,-1,-1,-1,-1,-1,-1,-1,-1,-1,-1,-1,-1,-1,-1,-1,-1],"split_conditions":[1.6838634E0,-1.7568984E0,4.7753155E-1,6.643059E-1,-1.2359589E0,3.726767E-1,1.1543775E0,-5.2439344E-1,-1.7632967E0,1.217813E0,2.6785269E0,-7.215065E-1,9.1176116E-1,2.1524367E0,5.369829E-1,1.0717372E0,-1.2960434E0,3.6805182E0,-3.2525802E-1,1.3934972E0,1.0529618E0,1.7736287E0,-3.065306E-1,8.2927793E-1,-8.6065304E-1,4.3019545E-1,-3.8444573E-1,5.3476435E-1,1.9905335E-1,-3.784616E-1,1.8334694E0,4.9611908E-1,-3.9275393E-1,6.451243E-1,4.2843127E-1,9.6867466E-1,1.1062193E0,1.0871378E0,-4.2599782E-1,-8.674725E-1,-6.1524427E-1,9.0150374E-1,-1.7884393E-1,-4.0784488E-3,-1.0204065E0,-1.6923721E0,3.8845792E0,1.1145599E-1,1.319221E0,-3.4657854E-1,1.9531121E0,-1.5654289E0,-1.4232125E0,-1.9148605E-2,2.7458733E-1,-3.6093017E-1,3.1320387E-1,-3.5347983E-1,-1.6746666E0,2.7061504E-1,-4.703716E-1,3.827171E-1,9.363789E-1,1.4451833E-1,3.3600324E-1,5.0393358E-2,-2.919248E-1,7.760826E-1,-2.35215E-1,-3.0132276E-1,-1.445566E-1,6.6063195E-2,-2.976787E-1,9.8400116E-2,5.0934935E-1,2.1009713E-1,-3.3416834E-1,-1.998641E-2,2.642858E-2,-3.7059397E-1,-7.762516E-2,1.2469642E-1,-5.291201E-1,-5.925053E-2,-4.9158135E-1,1.2256575E-2,-3.6371785E-1,-1.3004747E-1,6.772966E-1,4.0391585E-1,-3.924538E-1,6.0989267E-1,7.144687E-2,1.3112471E0,-1.334972E-1,-3.650909E-1,-4.6417645E-1,-3.946857E-1,2.4265452E-1,6.046437E-1,-3.4635893E-1,-2.8905985E-1,6.369524E-1],"split_indices":[4,8,5,5,6,5,3,3,8,7,3,8,6,4,0,4,6,7,2,1,5,8,6,2,2,5,0,8,8,0,4,5,0,5,1,5,5,0,0,5,4,5,2,8,7,8,3,5,7,0,4,8,3,8,3,0,8,0,8,0,0,0,0,0,0,0,0,0,0,0,0,0,0,0,0,0,0,0,0,0,0,0,0,0,0,0,0,0,0,0,0,0,0,0,0,0,0,0,0,0,0,0,0],"split_type":[0,0,0,0,0,0,0,0,0,0,0,0,0,0,0,0,0,0,0,0,0,0,0,0,0,0,0,0,0,0,0,0,0,0,0,0,0,0,0,0,0,0,0,0,0,0,0,0,0,0,0,0,0,0,0,0,0,0,0,0,0,0,0,0,0,0,0,0,0,0,0,0,0,0,0,0,0,0,0,0,0,0,0,0,0,0,0,0,0,0,0,0,0,0,0,0,0,0,0,0,0,0,0],"sum_hessian":[2.9804016E4,2.8796145E4,1.0078714E3,7.4658E2,2.8049564E4,6.6742175E2,3.4044962E2,5.551966E2,1.9138344E2,1.2610944E3,2.678847E4,3.845442E2,2.8287753E2,2.979015E2,4.254813E1,5.1149178E1,5.0404742E2,1.800094E2,1.1374034E1,1.0646838E3,1.9641046E2,2.6417738E4,3.7073233E2,3.0268915E2,8.185505E1,2.5245299E2,3.042455E1,2.626248E2,3.5276695E1,1.3885537E1,2.8662594E1,2.7821196E1,2.332798E1,5.895227E1,4.4509512E2,1.6882506E2,1.1184354E1,7.8339853E0,3.5400486E0,8.088979E2,2.5578595E2,1.27612434E2,6.8798035E1,2.6082193E4,3.3554324E2,7.377642E1,2.969559E2,2.7865347E2,2.4035694E1,2.0894957E1,6.0960094E1,1.6437704E2,8.807594E1,2.1510596E2,4.751884E1,1.930188E1,1.5974817E1,5.7083435E0,2.295425E1,2.4351362E1,3.4698336E0,4.902272E1,9.929551E0,2.9440192E2,1.5069322E2,1.0611567E2,6.2709385E1,9.304799E0,1.8795545E0,1.717418E2,6.3715607E2,2.0299031E2,5.279563E1,8.287949E1,4.4732937E1,1.8411377E1,5.0386658E1,9.539969E3,1.6542225E4,1.19431786E2,2.1611143E2,2.7976542E0,7.097877E1,2.7514328E2,2.1812618E1,5.625506E1,2.223984E2,1.359013E1,1.0445564E1,5.2801346E1,8.158747E0,7.3161514E1,9.121554E1,3.0468435E0,8.50291E1,1.6469336E2,5.0412594E1,3.2052967E1,1.5465874E1,1.08925085E1,5.0823092E0,1.6939769E0,2.1260273E1],"tree_param":{"num_deleted":"0","num_feature":"9","num_nodes":"103","size_leaf_vector":"0"}},{"base_weights":[-2.184623E-3,-3.2068712E-1,1.4096535E-2,-8.6701906E-1,-2.0243786E-1,5.2659154E-1,1.8693167E-3,-9.84268E-1,4.3377575E-1,-4.6067003E-2,-6.5200096E-1,-9.77785E-1,6.664077E-1,2.971706E-1,-1.714186E-2,-1.062008E0,-2.1146876E-1,1.2181456E0,-9.7187287E-1,4.8013738E-1,-2.5613558E-1,1.5998787E0,-7.0793295E-1,3.9768904E-1,-1.331677E0,3.5841584E0,5.819305E-1,-2.1780661E-1,4.3151346E-1,-2.027762E-1,3.1235572E-2,2.071048E0,-9.928424E-1,-6.8920547E-1,1.5549852E0,-1.2246239E0,6.345124E-1,-7.012619E-2,-8.772053E-1,-1.0815701E0,3.8580492E0,-9.4313586E-1,-3.34011E-2,-1.2771189E0,2.6993635E0,1.4441133E0,4.4740443E0,6.6524196E-1,-7.356724E-1,5.2168425E-2,-1.0194554E0,7.894398E0,4.1709155E-1,-2.3478447E-1,4.8337385E-1,4.2331945E-2,-4.7968897E-1,-1.3051817E0,7.4094874E-1,-3.3484694E-1,6.0742295E-1,-1.2907896E0,-8.829699E-3,-1.4225945E0,-5.473969E-1,1.1252027E0,-5.476696E-1,7.94866E-1,-1.5875527E-1,-1.8269877E0,6.308533E-2,6.753641E-1,-3.269919E-1,-1.2248242E0,1.4611212E0,-1.1566374E0,4.785972E-1,-1.2676136E-2,-3.1439164E-1,6.310044E-1,-1.3845553E0,1.0726024E-1,-5.3494908E-2,-5.5591132E-2,-1.0825769E0],"categories":[],"categories_nodes":[],"categories_segments":[],"categories_sizes":[],"default_left":[true,true,true,true,true,true,true,true,true,true,true,true,true,true,true,false,true,true,false,true,true,true,true,true,false,true,true,true,true,true,true,false,false,false,false,false,true,true,true,false,false,true,true,false,false,false,false,true,true,true,true,false,true,true,true,true,true,false,false,false,false,false,false,false,false,false,false,false,false,false,false,false,false,false,false,false,false,false,false,false,false,false,false,false,false],"id":10,"left_children":[1,3,5,7,9,11,13,15,17,19,21,23,25,27,29,-1,31,33,-1,35,37,39,41,43,-1,45,47,49,51,53,55,-1,-1,-1,-1,-1,57,59,61,-1,-1,63,65,-1,-1,-1,-1,67,69,71,73,-1,75,77,79,81,83,-1,-1,-1,-1,-1,-1,-1,-1,-1,-1,-1,-1,-1,-1,-1,-1,-1,-1,-1,-1,-1,-1,-1,-1,-1,-1,-1,-1],"loss_changes":[1.5303859E2,9.254562E1,1.7594147E2,3.9329086E1,8.3004486E1,1.3826581E2,1.5396365E2,1.3850586E1,2.5201832E1,9.7112785E1,3.9515686E1,2.7808655E1,1.4561136E2,1.1485481E2,2.3139932E2,0E0,4.247452E1,1.03398075E1,0E0,6.67516E1,7.245764E1,5.0752144E1,4.7254837E1,5.0623608E1,0E0,2.5279633E1,6.4546524E1,7.4474045E1,1.3833885E2,1.1710292E2,1.1590495E2,0E0,0E0,0E0,0E0,0E0,4.856124E1,8.704075E1,5.1917244E1,0E0,0E0,4.11456E1,4.7147755E1,0E0,0E0,0E0,0E0,5.8804535E1,3.077997E1,6.1227768E1,4.594657E1,0E0,1.2778265E2,8.999521E1,6.643404E1,1.24485344E2,1.1105283E2,0E0,0E0,0E0,0E0,0E0,0E0,0E0,0E0,0E0,0E0,0E0,0E0,0E0,0E0,0E0,0E0,0E0,0E0,0E0,0E0,0E0,0E0,0E0,0E0,0E0,0E0,0E0,0E0],"parents":[2147483647,0,0,1,1,2,2,3,3,4,4,5,5,6,6,7,7,8,8,9,9,10,10,11,11,12,12,13,13,14,14,16,16,17,17,19,19,20,20,21,21,22,22,23,23,25,25,26,26,27,27,28,28,29,29,30,30,36,36,37,37,38,38,41,41,42,42,47,47,48,48,49,49,50,50,52,52,53,53,54,54,55,55,56,56],"right_children":[2,4,6,8,10,12,14,16,18,20,22,24,26,28,30,-1,32,34,-1,36,38,40,42,44,-1,46,48,50,52,54,56,-1,-1,-1,-1,-1,58,60,62,-1,-1,64,66,-1,-1,-1,-1,68,70,72,74,-1,76,78,80,82,84,-1,-1,-1,-1,-1,-1,-1,-1,-1,-1,-1,-1,-1,-1,-1,-1,-1,-1,-1,-1,-1,-1,-1,-1,-1,-1,-1,-1],"split_conditions":[-1.4033568E0,-1.1774708E0,-1.2268533E0,-8.426871E-1,-1.9532533E-1,-1.0787416E0,-7.8879625E-1,-1.6215593E0,-8.0269814E-1,1.0205652E0,-2.2236497E0,-1.0223384E0,1.1941927E-1,-5.5896753E-1,-1.1211501E-1,-3.186024E-1,-1.6214966E0,-4.604063E-1,-2.9156187E-1,-1.3040624E0,-7.4410224E-1,-2.2261176E0,2.702171E-1,-1.0332718E0,-3.995031E-1,-8.3522886E-1,-5.141032E-1,1.4987379E0,-5.587461E-1,1.0149559E0,1.634146E0,6.213144E-1,-2.9785272E-1,-2.0676164E-1,4.6649557E-1,-3.6738718E-1,-1.0985099E0,-6.69407E-1,-9.5928156E-1,-3.2447106E-1,1.1574148E0,2.0980662E-1,1.0853007E0,-3.831357E-1,8.098091E-1,4.33234E-1,1.3422134E0,1.7661994E0,-1.3347156E-1,-9.866657E-1,1.8578289E0,2.3683195E0,2.3165199E-1,-8.2365704E-1,1.610641E0,2.4420154E-1,8.5258746E-1,-3.9155453E-1,2.2228463E-1,-1.00454085E-1,1.822269E-1,-3.872369E-1,-2.6489098E-3,-4.2677838E-1,-1.6421908E-1,3.375608E-1,-1.6430089E-1,2.3845981E-1,-4.7626585E-2,-5.4809636E-1,1.89256E-2,2.0260923E-1,-9.809757E-2,-3.6744726E-1,4.3833637E-1,-3.4699124E-1,1.4357917E-1,-3.8028408E-3,-9.4317496E-2,1.8930133E-1,-4.1536662E-1,3.2178074E-2,-1.6048472E-2,-1.667734E-2,-3.2477307E-1],"split_indices":[2,5,4,4,1,5,2,2,4,8,2,6,8,6,2,0,2,0,0,0,0,2,1,6,0,1,7,4,6,1,8,0,0,0,0,0,6,7,1,0,0,7,4,0,0,0,0,8,7,8,7,0,5,0,5,4,1,0,0,0,0,0,0,0,0,0,0,0,0,0,0,0,0,0,0,0,0,0,0,0,0,0,0,0,0],"split_type":[0,0,0,0,0,0,0,0,0,0,0,0,0,0,0,0,0,0,0,0,0,0,0,0,0,0,0,0,0,0,0,0,0,0,0,0,0,0,0,0,0,0,0,0,0,0,0,0,0,0,0,0,0,0,0,0,0,0,0,0,0,0,0,0,0,0,0,0,0,0,0,0,0,0,0,0,0,0,0,0,0,0,0,0,0],"sum_hessian":[2.951041E4,1.4342373E3,2.8076172E4,2.5406787E2,1.1801694E3,6.5325824E2,2.7422914E4,2.3328384E2,2.078403E1,8.76426E2,3.0374347E2,5.5041058E1,5.9821716E2,1.6577888E3,2.5765125E4,2.1162148E2,2.1662367E1,1.3425708E1,7.358324E0,2.4968932E2,6.267367E2,6.6925015E0,2.9705096E2,1.1238102E1,4.3802956E1,1.5667044E1,5.825501E2,3.4286417E2,1.3149247E3,5.3257847E3,2.043934E4,5.1035533E0,1.6558813E1,1.8581059E0,1.1567602E1,2.0157507E1,2.2953181E2,4.8314764E2,1.4358904E2,3.2977054E0,3.3947961E0,2.1995612E2,7.709484E1,6.7625117E0,4.4755907E0,5.371701E0,1.0295343E1,5.4837195E2,3.4178196E1,2.5718552E2,8.567865E1,1.4823152E0,1.3134424E3,5.089043E3,2.3674144E2,2.0005768E4,4.3357254E2,1.1354E1,2.1817781E2,3.4777615E2,1.3537152E2,9.693501E1,4.6654022E1,9.8284485E1,1.2167164E2,2.3335024E1,5.375982E1,4.7386325E2,7.4508675E1,1.3899922E1,2.0278273E1,9.698984E1,1.601957E2,7.9595146E1,6.0835056E0,4.8732437E1,1.26471E3,1.3430422E3,3.746001E3,2.2001491E2,1.6726538E1,1.1925455E4,8.080313E3,2.5516823E2,1.7840433E2],"tree_param":{"num_deleted":"0","num_feature":"9","num_nodes":"85","size_leaf_vector":"0"}},{"base_weights":[-3.0639414E-3,-1.4074922E-1,2.9521791E-2,-1.2375815E-1,-1.1498426E0,1.3211407E-1,-4.9375053E-2,-4.4730788E-1,-6.4811826E-2,3.7711534E-1,-1.6567047E0,2.6495248E-1,-8.013456E-2,9.077719E-2,-2.0228362E-1,-2.3362815E-1,-7.7734613E-1,1.6973896E-1,-1.5977804E-1,-2.8188074E-1,2.5588748E0,-1.3767016E0,-2.9830794E0,3.3359444E-1,-1.9099744E-1,-5.7056416E-2,-1.6356938E0,6.0303575E-1,-2.0746367E-2,-2.9205102E-1,5.575469E-2,-6.5999436E-1,9.1700144E-2,-4.6907914E-1,-1.0107596E0,-5.5769295E-1,2.7380592E-1,3.8626436E-2,-3.0479226E-1,-1.347506E0,1.2350312E0,-1.273414E0,-1.7530293E0,3.765951E-1,-2.2093183E-1,-8.945424E-1,-4.8933312E-2,5.987618E-2,-2.7485672E-1,-2.2884161E0,4.9156988E-1,6.1117953E-1,-2.6125538E0,-6.913763E-2,4.9129266E-1,-2.559633E-1,-1.1198143E0,1.8173498E-1,-9.471278E-1,1.5801493E0,-7.368206E-1,4.1177535E0,3.3059582E-2,-6.067282E-1,5.553024E0,-3.29016E-1,-1.115439E0,-1.4333867E0,-1.7366719E-1,1.0448275E0,1.7530794E-1,-2.4800166E-1,3.2481048E-1,-8.0784535E-1,4.568274E-2,2.3725233E0,-9.323476E-1,1.3653801E-1,4.873686E-1,-1.8530387E-2,-1.1778411E0,-1.1997132E0,5.97173E-1,2.4813248E-2,-1.3875492E0,1.1640802E-1,-7.367175E-1,1.05330996E-1,-5.0495106E-1,-2.6800082E0,-6.3577306E-1,1.3208712E0,-1.8842973E0,4.8045865E-1,8.000856E-1,-1.2175948E-1,4.5200574E-1,6.105613E-1,-1.404053E0,-2.2340207E-1,-9.9181587E-1,-1.3807242E0,-4.9418715E-1,2.653725E-1,-8.385344E-1,1.8495501E0,-1.0442609E0],"categories":[],"categories_nodes":[],"categories_segments":[],"categories_sizes":[],"default_left":[true,true,true,true,true,true,true,true,true,true,true,true,true,true,true,true,true,true,true,true,false,true,false,true,true,true,true,true,true,true,true,true,true,true,true,true,true,true,true,false,true,false,false,true,true,true,true,true,true,true,true,true,false,true,true,true,true,true,true,false,false,false,false,false,false,false,false,false,false,false,false,false,false,false,false,false,false,false,false,false,false,false,false,false,false,false,false,false,false,false,false,false,false,false,false,false,false,false,false,false,false,false,false,false,false,false,false],"id":11,"left_children":[1,3,5,7,9,11,13,15,17,19,21,23,25,27,29,31,33,35,37,39,-1,41,-1,43,45,47,49,51,53,55,57,59,61,63,65,67,69,71,73,-1,75,-1,-1,77,79,81,83,85,87,89,91,93,-1,95,97,99,101,103,105,-1,-1,-1,-1,-1,-1,-1,-1,-1,-1,-1,-1,-1,-1,-1,-1,-1,-1,-1,-1,-1,-1,-1,-1,-1,-1,-1,-1,-1,-1,-1,-1,-1,-1,-1,-1,-1,-1,-1,-1,-1,-1,-1,-1,-1,-1,-1,-1],"loss_changes":[1.3081255E2,9.552707E1,1.9084105E2,1.04649055E2,7.204281E1,2.8900385E2,2.8564734E2,5.9457077E1,1.0346683E2,3.4956673E1,2.1691772E1,1.9737064E2,1.4157414E2,3.9733527E2,1.4766739E2,7.146141E1,2.3408463E1,1.0150533E2,9.513136E1,3.2681564E1,0E0,6.930542E-2,0E0,1.3074756E2,8.246774E1,9.907609E1,8.117816E1,3.415927E1,1.4157666E2,1.4098715E2,2.0813702E2,3.9526398E1,6.9002716E1,1.2347438E2,1.3051361E1,5.6211765E1,8.8819496E1,1.1466743E2,3.3680582E2,0E0,2.3018438E1,0E0,0E0,1.3517389E2,7.647713E1,6.3826813E1,6.794331E1,1.14093285E2,1.1893102E2,2.6961533E1,3.0782446E1,3.02641E1,0E0,1.4320628E2,1.1238584E2,1.0839075E2,3.1518799E1,1.2507911E2,5.1876038E1,0E0,0E0,0E0,0E0,0E0,0E0,0E0,0E0,0E0,0E0,0E0,0E0,0E0,0E0,0E0,0E0,0E0,0E0,0E0,0E0,0E0,0E0,0E0,0E0,0E0,0E0,0E0,0E0,0E0,0E0,0E0,0E0,0E0,0E0,0E0,0E0,0E0,0E0,0E0,0E0,0E0,0E0,0E0,0E0,0E0,0E0,0E0,0E0],"parents":[2147483647,0,0,1,1,2,2,3,3,4,4,5,5,6,6,7,7,8,8,9,9,10,10,11,11,12,12,13,13,14,14,15,15,16,16,17,17,18,18,19,19,21,21,23,23,24,24,25,25,26,26,27,27,28,28,29,29,30,30,31,31,32,32,33,33,34,34,35,35,36,36,37,37,38,38,40,40,43,43,44,44,45,45,46,46,47,47,48,48,49,49,50,50,51,51,53,53,54,54,55,55,56,56,57,57,58,58],"right_children":[2,4,6,8,10,12,14,16,18,20,22,24,26,28,30,32,34,36,38,40,-1,42,-1,44,46,48,50,52,54,56,58,60,62,64,66,68,70,72,74,-1,76,-1,-1,78,80,82,84,86,88,90,92,94,-1,96,98,100,102,104,106,-1,-1,-1,-1,-1,-1,-1,-1,-1,-1,-1,-1,-1,-1,-1,-1,-1,-1,-1,-1,-1,-1,-1,-1,-1,-1,-1,-1,-1,-1,-1,-1,-1,-1,-1,-1,-1,-1,-1,-1,-1,-1,-1,-1,-1,-1,-1,-1],"split_conditions":[-8.9926755E-1,1.8989549E0,1.1331259E-1,-9.330082E-1,-2.7186924E-1,1.2229857E0,7.3670304E-1,-1.1360873E0,-6.580694E-1,-2.743314E-1,-9.8624563E-1,1.4675906E0,2.1401315E0,5.561257E-1,8.020904E-1,-1.3078892E0,-1.0716352E0,-1.36861E0,-8.977784E-1,1.6918969E0,7.6766247E-1,-1.0285034E0,-8.9492387E-1,1.7862864E0,-9.6445936E-1,5.9683204E-2,-4.8421168E-1,1.7158046E0,7.299048E-1,1.3744607E0,1.1523153E0,-1.8267424E0,-1.3078821E0,-1.0716809E0,-1.068358E0,2.1737595E0,-3.8063934E-1,3.3025306E-1,-7.4861735E-1,-4.0425184E-1,1.7299714E0,-3.8202423E-1,-5.259088E-1,-3.1125364E-1,5.388329E-1,1.5481529E0,1.2655512E0,1.7957802E0,-9.6826077E-1,1.724052E0,-8.3292806E-1,-2.8815752E-1,-7.837662E-1,3.014115E-1,9.8164976E-1,2.176303E0,1.0586152E0,9.472841E-1,-1.7239387E0,4.740448E-1,-2.2104618E-1,1.235326E0,9.917875E-3,-1.8201846E-1,1.6659073E0,-9.870481E-2,-3.3463174E-1,-4.30016E-1,-5.210016E-2,3.1344825E-1,5.2592386E-2,-7.44005E-2,9.744315E-2,-2.4235362E-1,1.3704822E-2,7.11757E-1,-2.797043E-1,4.0961407E-2,1.462106E-1,-5.5591166E-3,-3.5335234E-1,-3.5991398E-1,1.791519E-1,7.4439747E-3,-4.1626477E-1,3.4922406E-2,-2.2101526E-1,3.15993E-2,-1.5148532E-1,-8.0400246E-1,-1.9073193E-1,3.962614E-1,-5.652892E-1,1.441376E-1,2.4002568E-1,-3.6527846E-2,1.3560173E-1,1.831684E-1,-4.2121592E-1,-6.7020625E-2,-2.9754478E-1,-4.1421726E-1,-1.4825615E-1,7.9611756E-2,-2.5156033E-1,5.5486506E-1,-3.1327826E-1],"split_indices":[5,2,4,1,8,8,5,4,0,8,5,5,1,4,2,4,1,5,7,1,0,5,0,3,0,6,4,1,2,5,2,0,4,1,6,1,8,8,4,0,1,0,0,5,8,1,2,8,4,2,5,8,0,8,2,6,6,8,6,0,0,0,0,0,0,0,0,0,0,0,0,0,0,0,0,0,0,0,0,0,0,0,0,0,0,0,0,0,0,0,0,0,0,0,0,0,0,0,0,0,0,0,0,0,0,0,0],"split_type":[0,0,0,0,0,0,0,0,0,0,0,0,0,0,0,0,0,0,0,0,0,0,0,0,0,0,0,0,0,0,0,0,0,0,0,0,0,0,0,0,0,0,0,0,0,0,0,0,0,0,0,0,0,0,0,0,0,0,0,0,0,0,0,0,0,0,0,0,0,0,0,0,0,0,0,0,0,0,0,0,0,0,0,0,0,0,0,0,0,0,0,0,0,0,0,0,0,0,0,0,0,0,0,0,0,0,0],"sum_hessian":[2.9154508E4,5.5788286E3,2.357568E4,5.4875522E3,9.12765E1,1.0248512E4,1.3327167E4,8.446693E2,4.642883E3,2.2811426E1,6.846507E1,6.303279E3,3.945233E3,6.953847E3,6.37332E3,5.137532E2,3.309161E2,1.3378436E3,3.3050393E3,1.8188444E1,4.622982E0,5.8213837E1,1.0251234E1,5.478739E3,8.245403E2,3.8885789E3,5.665395E1,1.2424631E3,5.7113843E3,4.728291E3,1.6450286E3,2.2190369E2,2.918495E2,1.4389067E2,1.8702542E2,1.6689342E2,1.1709502E3,1.3959171E3,1.9091221E3,1.0748993E1,7.4394517E0,4.9116913E1,9.096921E0,5.084762E3,3.9397635E2,1.3763466E2,6.8690564E2,2.5306494E3,1.3579296E3,4.329401E1,1.33599415E1,1.2401323E3,2.33081E0,5.2190156E3,4.9236847E2,4.5320195E3,1.9627173E2,1.462172E3,1.8285663E2,6.7090635E0,2.1519463E2,3.1961036E0,2.8865338E2,1.4155437E2,2.3363018E0,2.5446125E1,1.615793E2,5.004448E1,1.1684893E2,1.3155528E2,1.0393949E3,6.974842E2,6.98433E2,7.833863E2,1.1257358E3,4.816819E0,2.6226325E0,1.6062002E3,3.4785623E3,3.260343E2,6.794205E1,1.1442223E2,2.3212425E1,6.5196906E2,3.4936592E1,2.3637546E3,1.6689465E2,5.121839E2,8.4574567E2,3.4498074E1,8.795935E0,1.0232362E1,3.1275802E0,7.350379E2,5.050944E2,4.741059E3,4.779566E2,4.6385715E2,2.8511337E1,4.341225E3,1.9079413E2,1.3765675E2,5.861496E1,1.3520743E3,1.1009765E2,5.532153E0,1.7732446E2],"tree_param":{"num_deleted":"0","num_feature":"9","num_nodes":"107","size_leaf_vector":"0"}},{"base_weights":[-2.614271E-3,2.4310498E-1,-1.7544495E-2,3.8520628E-1,-1.7764185E-1,-1.5737055E-1,2.2183226E-2,-2.674943E-1,5.0415367E-1,-5.706529E-1,3.6632672E-1,-1.24728024E-1,-7.809907E-1,-6.079359E-2,1.05676286E-1,-8.372579E-1,3.0923727E-1,-4.9489785E-2,6.132066E-1,-6.746907E-1,1.3333544E0,5.3588384E-1,-1.2789041E0,9.566105E-2,-2.102017E-1,-3.5514027E-1,-1.2948458E0,2.6749876E-1,-1.0720887E-1,4.7139058E-1,4.1240007E-2,-1.1799151E0,5.105936E-1,2.9763932E0,-2.0802815E-2,5.1240325E-1,-7.6893646E-1,1.7041664E0,5.466184E-1,4.0704966E-1,-8.693445E-1,1.8340684E0,-1.050183E0,1.8913814E-1,1.3359146E0,4.0289757E-1,-2.9035774E-1,-3.1410167E-1,8.053911E-2,-1.1658418E-1,-1.3789196E0,4.2850706E-1,-1.503383E0,2.5266445E-1,8.031874E0,-8.6992286E-2,-6.368211E-1,6.1555374E-1,5.5886127E-2,2.0008011E-1,-1.6641702E-1,1.0879382E0,-1.1504472E0,-8.669017E-1,4.310875E0,9.4643205E-1,-7.8039604E-1,-1.6437389E0,7.51887E-1,-1.2260789E-1,-1.5313778E0,2.1555252E0,-1.1190349E0,6.355106E-1,-9.704096E-2,-9.7386694E-1,1.1960765E0,-9.6178335E-1,1.6570895E0,1.0692708E0,2.306395E0,4.9473155E-1,-8.460868E-1,1.6822288E0,-1.218333E0,-7.165767E-1,5.079703E-1,-6.9045705E-1,2.0201369E-1,3.0686254E-2,-4.797449E-1,3.6036223E-1,-4.9547374E-1,-4.0719098E-1,8.6184347E-1,-1.47964E0,-5.64102E-2,-1.7183996E0,1.4598539E0,9.52608E-2,-1.5945717E0,3.97643E-1,-1.69E-1,-2.0753068E-1,-1.0499138E-2,-2.3247992E-1,-1.0018923E0,1.0762268E0,4.7846207E-1,6.3337827E-1,-1.7320056E-1,4.7223008E-1,-1.454934E-2,-4.525249E-1,-2.0153273E-2],"categories":[],"categories_nodes":[],"categories_segments":[],"categories_sizes":[],"default_left":[true,true,true,true,true,true,true,true,true,true,true,true,true,true,true,true,true,true,true,true,true,true,false,true,true,true,true,true,true,true,true,false,true,true,true,true,true,true,true,true,true,true,false,true,true,true,true,true,true,true,true,true,true,true,false,true,true,true,true,true,true,false,false,false,false,false,false,false,false,false,false,false,false,false,false,false,false,false,false,false,false,false,false,false,false,false,false,false,false,false,false,false,false,false,false,false,false,false,false,false,false,false,false,false,false,false,false,false,false,false,false,false,false,false,false],"id":12,"left_children":[1,3,5,7,9,11,13,15,17,19,21,23,25,27,29,31,33,35,37,39,41,43,-1,45,47,49,51,53,55,57,59,-1,61,63,65,67,69,71,73,75,77,79,-1,81,83,85,87,89,91,93,95,97,99,101,-1,103,105,107,109,111,113,-1,-1,-1,-1,-1,-1,-1,-1,-1,-1,-1,-1,-1,-1,-1,-1,-1,-1,-1,-1,-1,-1,-1,-1,-1,-1,-1,-1,-1,-1,-1,-1,-1,-1,-1,-1,-1,-1,-1,-1,-1,-1,-1,-1,-1,-1,-1,-1,-1,-1,-1,-1,-1,-1],"loss_changes":[1.0450686E2,9.762755E1,1.491801E2,9.485881E1,8.842666E1,1.2085956E2,1.4489624E2,6.2274544E1,6.2360657E1,4.843184E1,4.9138233E1,1.0640587E2,6.417273E1,1.5987164E2,2.4564336E2,4.4573647E1,8.3264885E1,6.9444305E1,6.1728516E1,4.8401833E1,1.716451E1,4.362412E1,0E0,1.8737363E2,1.2296135E2,3.9621445E1,4.8611908E1,1.476665E2,9.835466E1,9.350195E1,2.9241415E2,0E0,2.0427452E1,5.7154297E1,6.3265568E1,5.1068115E1,3.6920876E1,6.5037994E1,4.6658936E1,3.9823273E1,4.6832016E1,1.4769516E0,0E0,3.569502E1,4.420774E1,1.0382625E2,1.381006E2,1.7125952E2,1.7300476E2,3.8224342E1,4.004616E0,3.613313E1,1.754129E1,7.943113E1,0E0,8.163892E1,4.962982E1,7.2693695E1,5.3468544E1,2.934035E2,1.6078122E2,0E0,0E0,0E0,0E0,0E0,0E0,0E0,0E0,0E0,0E0,0E0,0E0,0E0,0E0,0E0,0E0,0E0,0E0,0E0,0E0,0E0,0E0,0E0,0E0,0E0,0E0,0E0,0E0,0E0,0E0,0E0,0E0,0E0,0E0,0E0,0E0,0E0,0E0,0E0,0E0,0E0,0E0,0E0,0E0,0E0,0E0,0E0,0E0,0E0,0E0,0E0,0E0,0E0,0E0],"parents":[2147483647,0,0,1,1,2,2,3,3,4,4,5,5,6,6,7,7,8,8,9,9,10,10,11,11,12,12,13,13,14,14,15,15,16,16,17,17,18,18,19,19,20,20,21,21,23,23,24,24,25,25,26,26,27,27,28,28,29,29,30,30,32,32,33,33,34,34,35,35,36,36,37,37,38,38,39,39,40,40,41,41,43,43,44,44,45,45,46,46,47,47,48,48,49,49,50,50,51,51,52,52,53,53,55,55,56,56,57,57,58,58,59,59,60,60],"right_children":[2,4,6,8,10,12,14,16,18,20,22,24,26,28,30,32,34,36,38,40,42,44,-1,46,48,50,52,54,56,58,60,-1,62,64,66,68,70,72,74,76,78,80,-1,82,84,86,88,90,92,94,96,98,100,102,-1,104,106,108,110,112,114,-1,-1,-1,-1,-1,-1,-1,-1,-1,-1,-1,-1,-1,-1,-1,-1,-1,-1,-1,-1,-1,-1,-1,-1,-1,-1,-1,-1,-1,-1,-1,-1,-1,-1,-1,-1,-1,-1,-1,-1,-1,-1,-1,-1,-1,-1,-1,-1,-1,-1,-1,-1,-1,-1],"split_conditions":[-1.5579752E0,6.6424704E-1,-6.302833E-1,-3.6718905E-1,3.8393825E-1,-6.900656E-1,1.9526368E-2,-3.8504565E-1,-2.5246328E-1,3.681758E0,1.0428076E0,4.7352082E-1,4.8385584E-1,-1.2740576E0,-2.6450843E-1,4.9727654E-1,-3.3284798E-1,1.0717372E0,-2.0155415E-1,-6.831722E-1,9.564211E-1,8.1313527E-1,-3.8367125E-1,1.2607913E0,7.398585E-1,-6.475898E-1,-6.377586E-1,-1.2741176E0,1.878273E0,1.466619E0,9.4660246E-1,-3.5397452E-1,-5.033446E-1,4.3028414E-1,-1.049376E0,-7.9362845E-1,-5.116773E-1,5.2246225E-1,1.6566656E0,-7.1294224E-1,-1.5603104E0,-2.6733539E-1,-3.1505492E-1,5.3088117E-1,-3.1987685E-1,-1.3741659E0,4.3215865E-1,-1.5393457E-1,9.8725414E-1,-6.511842E-1,2.6012843E0,6.035968E-1,2.4444291E-1,-1.1157192E-1,2.409562E0,7.830049E-1,-4.914345E-1,2.9930957E-2,-3.4332177E-1,6.05441E-1,6.0105324E-1,3.2638147E-1,-3.451342E-1,-2.6007053E-1,1.2932625E0,2.8392962E-1,-2.3411882E-1,-4.9312168E-1,2.2556612E-1,-3.678237E-2,-4.5941335E-1,6.466576E-1,-3.3571047E-1,1.9065319E-1,-2.9112289E-2,-2.921601E-1,3.5882297E-1,-2.8853503E-1,4.9712685E-1,3.2078126E-1,6.9191855E-1,1.4841947E-1,-2.5382605E-1,5.0466865E-1,-3.654999E-1,-2.1497302E-1,1.5239109E-1,-2.0713712E-1,6.0604107E-2,9.205877E-3,-1.4392348E-1,1.0810868E-1,-1.4864212E-1,-1.221573E-1,2.5855306E-1,-4.4389203E-1,-1.692306E-2,-5.155199E-1,4.3795618E-1,2.857824E-2,-4.7837153E-1,1.1929291E-1,-5.07E-2,-6.2259205E-2,-3.1497416E-3,-6.9743976E-2,-3.0056772E-1,3.2286805E-1,1.4353862E-1,1.9001348E-1,-5.196017E-2,1.4166903E-1,-4.364802E-3,-1.3575748E-1,-6.0459822E-3],"split_indices":[8,5,8,2,1,8,5,6,3,7,4,5,4,3,4,1,6,4,2,1,2,4,0,4,2,8,1,3,0,5,5,0,3,7,2,6,6,3,4,1,8,6,0,4,6,5,7,2,2,8,0,3,5,6,0,8,6,2,1,4,2,0,0,0,0,0,0,0,0,0,0,0,0,0,0,0,0,0,0,0,0,0,0,0,0,0,0,0,0,0,0,0,0,0,0,0,0,0,0,0,0,0,0,0,0,0,0,0,0,0,0,0,0,0,0],"split_type":[0,0,0,0,0,0,0,0,0,0,0,0,0,0,0,0,0,0,0,0,0,0,0,0,0,0,0,0,0,0,0,0,0,0,0,0,0,0,0,0,0,0,0,0,0,0,0,0,0,0,0,0,0,0,0,0,0,0,0,0,0,0,0,0,0,0,0,0,0,0,0,0,0,0,0,0,0,0,0,0,0,0,0,0,0,0,0,0,0,0,0,0,0,0,0,0,0,0,0,0,0,0,0,0,0,0,0,0,0,0,0,0,0,0,0],"sum_hessian":[2.848435E4,1.6307325E3,2.6853617E4,1.2190874E3,4.116451E2,5.9409243E3,2.0912693E4,1.8772646E2,1.031361E3,2.389543E2,1.726908E2,5.646563E3,2.943614E2,1.0488909E4,1.0423783E4,9.420645E1,9.3520004E1,1.6981003E2,8.6155096E2,2.2718616E2,1.1768143E1,1.5716743E2,1.552336E1,1.5779048E3,4.0686582E3,1.618891E2,1.3247229E2,1.2986781E3,9.190231E3,1.56053E3,8.863254E3,7.521065E1,1.8995808E1,9.415132E0,8.410487E1,9.550652E1,7.4303505E1,4.814622E1,8.134047E2,3.4480137E1,1.9270602E2,9.915668E0,1.8524755E0,1.1050799E2,4.665945E1,8.7858545E2,6.9931934E2,2.9974136E3,1.0712445E3,1.3219868E2,2.9690418E1,1.4185816E1,1.18286476E2,1.2972323E3,1.4459003E0,8.853438E3,3.36793E2,1.1582001E3,4.0232993E2,5.021934E3,3.8413193E3,1.4352271E1,4.643536E0,2.516891E0,6.898241E0,3.688766E1,4.721721E1,8.961335E0,